{
  "enter_threshold": 0.55,
  "exit_threshold": 0.45,
  "fabric": {
    "min_bars": 60,
    "window": 65
  },
  "feature_names": [
    "rsi_14_z",
    "sma_ratio_20",
    "ema_cross",
    "macd_hist_pct",
    "bb_pos",
    "atr_pct_14",
    "ret_1",
    "mom_10",
    "vol_20",
    "donchian_pos_20",
    "vol_accel_20",
    "dist_high_20",
    "dist_low_20",
    "vote_rsi_sma",
    "vote_ema_cross",
    "vote_macd",
    "vote_bollinger",
    "vote_supertrend",
    "vote_breakout",
    "vote_volume_breakout",
    "vote_golden_cross",
    "vote_engulfing"
  ],
  "horizon": 5,
  "label_threshold": 0.0,
  "lgb_params": {
    "bagging_fraction": 1.0,
    "deterministic": true,
    "feature_fraction": 1.0,
    "force_row_wise": true,
    "learning_rate": 0.05,
    "max_depth": 4,
    "min_data_in_leaf": 30,
    "num_leaves": 15,
    "num_threads": 1,
    "objective": "binary",
    "seed": 42,
    "verbose": -1
  },
  "model_text": "tree\nversion=v4\nnum_class=1\nnum_tree_per_iteration=1\nlabel_index=0\nmax_feature_idx=21\nobjective=binary sigmoid:1\nfeature_names=rsi_14_z sma_ratio_20 ema_cross macd_hist_pct bb_pos atr_pct_14 ret_1 mom_10 vol_20 donchian_pos_20 vol_accel_20 dist_high_20 dist_low_20 vote_rsi_sma vote_ema_cross vote_macd vote_bollinger vote_supertrend vote_breakout vote_volume_breakout vote_golden_cross vote_engulfing\nfeature_infos=[-0.82886491138034846:0.74116267222497467] [-0.035362735716053861:0.045660327740925988] [-0.017180946065641911:0.017917149035808322] [-0.005523939282708481:0.0060924160721868605] [-1.5397933467286262:1.7488272288164952] [0.0032864102693428662:0.0065499389433950131] [-0.013669958985896846:0.014566825522597249] [-0.049246263895492248:0.056227911136487618] [0.0017279759213897062:0.0057054594546593271] [-0.50843198037482418:1.7250464438675064] [-0.82879379138014198:2.8673535714843887] [-0.067062795230667827:-1.9915343640874994e-07] [8.5149503004089411e-08:0.079650277434506034] [-1:1] [-1:1] [-1:1] [-1:1] [-1:1] [-1:1] [-1:1] [-1:1] [-1:1]\ntree_sizes=1738 1748 1748 1744 1636 1744 1638 1738 1634 1536 1638 1632 1640 1632 1643 1534 1740 1640 1749 1747 1632 1763 1634 1748 1751 1415 1648 1529 1641 1215 1550 1544 1515 1535 1529 1428 1416 1100 1223 1528 1428 1759 1224 1217 1206 1211 1326 1755 1002 1437 1005 1535 1007 1211 1548 1438 1216 1425 1117 1006 1205 1542 900 999 1423 1012 1537 1430 1321 894 1416 899 1311 893 1317 890 797 1753 1541 1314\n\nTree=0\nnum_leaves=15\nnum_cat=0\nsplit_feature=3 3 3 8 7 3 2 8 11 8 8 3 5 5\nsplit_gain=305.334 34.194 26.4738 35.6548 26.1949 19.3019 14.3969 13.2808 12.072 10.7812 9.50051 4.83956 7.82979 6.48301\nthreshold=0.0004176423504713424 0.0017081496646672485 -0.001503574456669241 0.0046896883337565398 0.0055023598750828526 0.00092428584363583031 -0.0015927914813207986 0.0043897311898443711 -0.03964090921147722 0.0032694853643047816 0.0034937361716284913 0.0026106353181044521 0.0045491430797085118 0.0050806201896361454\ndecision_type=2 2 2 2 2 2 2 2 2 2 2 2 2 2\nleft_child=2 4 3 10 7 -6 8 -2 -4 -8 -1 12 -3 -13\nright_child=1 11 6 -5 5 -7 9 -9 -10 -11 -12 13 -14 -15\nleaf_value=-0.15628886952564514 -0.060913086671286198 -0.041633654673657233 -0.16409896571135438 -0.068202096878329288 -0.16366446497303844 -0.098852067885458222 -0.10587586677701771 -0.1306424088610266 -0.11677314529398163 -0.15990245858053076 -0.18355280347700706 -0.064903945432232074 -0.082410023677386895 -0.034395667538063446\nleaf_weight=49.566766262054443 40.350834846496582 16.937387466430664 16.439229011535645 8.4686937332153303 19.179100513458252 28.644111156463623 10.461327552795408 8.2196145057678205 74.72376823425293 78.709035873413086 89.917601108551025 36.116487979888916 38.607280254364014 33.625695705413818\nleaf_count=199 162 68 66 34 77 115 42 33 300 316 361 145 155 135\ninternal_value=-0.121526 -0.0761892 -0.152141 -0.167816 -0.0985769 -0.124845 -0.13928 -0.0727134 -0.125307 -0.153564 -0.173864 -0.0589645 -0.069976 -0.0501946\ninternal_weight=549.967 221.681 328.286 147.953 96.3937 47.8232 180.333 48.5704 91.163 89.1704 139.484 125.287 55.5447 69.7422\ninternal_count=2208 890 1318 594 387 192 724 195 366 358 560 503 223 280\nis_linear=0\nshrinkage=1\n\n\nTree=1\nnum_leaves=15\nnum_cat=0\nsplit_feature=3 3 3 12 8 3 3 2 5 8 5 3 5 5\nsplit_gain=275.495 30.6745 24.4052 24.2756 13.763 11.3466 10.2801 17.4202 11.7 6.40336 6.28399 4.33774 7.02163 5.81071\nthreshold=0.0004176423504713424 0.0017081496646672485 -0.0025487604774528517 0.0094136062103717961 0.0044108153673453653 0.00092428584363583031 -0.00076728691356919116 -0.0015927914813207986 0.0057453461678276044 0.0034937361716284913 0.004503476261928584 0.0026106353181044521 0.0045491430797085118 0.0050806201896361454\ndecision_type=2 2 2 2 2 2 2 2 2 2 2 2 2 2\nleft_child=2 3 4 10 9 -5 8 -8 -4 -1 -2 12 -3 -13\nright_child=1 11 6 5 -6 -7 7 -9 -10 -11 -12 13 -14 -15\nleaf_value=-0.039985590010667482 0.09764157831850552 0.075643563327054561 -0.033845717130787455 -0.016510164627644729 -0.0074990890693899656 0.023997699190753546 0.0091492694710294652 -0.03136927539656955 0.025763478187964556 -0.078433086847734979 0.045589418617614993 0.053645338643982181 0.037084286550094055 0.082484748638616448\nleaf_weight=15.157253161072729 8.7400755733251589 16.992635488510132 147.80515240132809 30.3543521463871 11.676832482218741 40.157949909567833 55.053002312779427 51.194498583674431 8.7173844277858716 37.929624751210213 17.226521328091621 36.211851239204407 38.684282675385475 33.740020170807838\nleaf_count=61 35 68 595 122 47 161 221 206 35 153 69 145 155 135\ninternal_value=-3.48251e-06 0.0429831 -0.0291536 0.0217797 -0.0566455 0.00655975 -0.0223778 -0.0103743 -0.0305258 -0.0674556 0.0631096 0.0592666 0.0488526 0.0675555\ninternal_weight=549.641 222.108 327.534 96.4789 64.7637 70.5123 262.77 106.248 156.523 53.0869 25.9666 125.629 55.6769 69.9519\ninternal_count=2208 890 1318 387 261 283 1057 427 630 214 104 503 223 280\nis_linear=0\nshrinkage=0.05\n\n\nTree=2\nnum_leaves=15\nnum_cat=0\nsplit_feature=3 3 7 3 3 5 8 3 2 5 8 1 17 5\nsplit_gain=248.863 27.6529 22.6388 22.3031 13.6015 13.3849 12.6057 9.33019 15.7664 10.5947 5.91832 4.15206 8.61515 4.15795\nthreshold=0.0004176423504713424 0.0017081496646672485 0.0072043881317652722 -0.0025487604774528517 0.00092428584363583031 0.0048327004965919712 0.0044108153673453653 -0.00076728691356919116 -0.0015927914813207986 0.0057453461678276044 0.0034937361716284913 0.0090943011544420988 1.0000000180025095e-35 0.0045665993912979959\ndecision_type=2 2 2 2 2 2 2 2 2 2 2 2 2 2\nleft_child=3 2 5 6 -4 -2 10 9 -9 -5 -1 12 -3 -13\nright_child=1 11 4 7 -6 -7 -8 8 -10 -11 -12 13 -14 -15\nleaf_value=-0.03812346439248062 0.0658187673330239 0.072284646920469112 -0.042876814842925465 -0.03225088558364033 0.016008269787017349 0.016787066521961196 -0.0071283132273448615 0.0086871364079414894 -0.029881727626163587 0.024442806830278253 -0.07517861118448034 0.082552969487302952 0.012585048795066556 0.05604081221017148\nleaf_weight=15.104066550731657 27.973354980349541 10.495603024959564 16.366811692714691 147.36959086358547 24.465713292360306 27.703166976571083 11.67016316950321 55.081825479865074 51.0593052059412 8.7286660820245725 37.601098939776421 17.996477037668228 14.245041757822037 82.967412680387497\nleaf_count=61 112 42 66 595 98 111 47 221 206 35 153 72 57 332\ninternal_value=-5.82514e-06 0.0408134 0.0206833 -0.0277773 -0.00759451 0.0414219 -0.0541482 -0.0213038 -0.00986646 -0.0290807 -0.0645595 0.0562682 0.0379111 0.0607665\ninternal_weight=548.828 222.214 96.509 326.615 40.8325 55.6765 64.3753 262.239 106.141 156.098 52.7052 125.705 24.7406 100.964\ninternal_count=2208 890 387 1318 164 223 261 1057 427 630 214 503 99 404\nis_linear=0\nshrinkage=0.05\n\n\nTree=3\nnum_leaves=15\nnum_cat=0\nsplit_feature=3 3 7 3 8 8 10 10 12 8 8 5 0 6\nsplit_gain=225.614 36.2957 22.6525 15.8807 11.5929 10.4066 8.43165 10.0347 5.82406 7.85792 5.51291 5.02103 4.50208 3.04219\nthreshold=9.4704196739290298e-05 0.0014918272481097468 1.0000000180025095e-35 -0.0025487604774528517 0.0044108153673453653 0.0031234778863634609 0.76998261832711001 0.47597257625606021 0.027300644917302778 0.0044215168135984442 0.0034937361716284913 0.004993963813282285 0.43767513358706939 -0.00062445108580216891\ndecision_type=2 2 2 2 2 2 2 2 2 2 2 2 2 2\nleft_child=3 2 11 4 10 -4 7 -5 9 -3 -1 -2 -10 -8\nright_child=1 8 5 6 -6 -7 13 -9 12 -11 -12 -13 -14 -15\nleaf_value=-0.036369471685773029 0.057747258450862954 0.046767850732217724 0.038603278426042408 -0.023364964753910523 -0.0067758500763722617 -0.012098058979287922 0.025020095828096101 -0.063891682617906925 0.069832751410270733 -0.0055995888513844273 -0.07224264262803369 0.021630859087516274 0.047011322600905348 -0.015515686890924155\nleaf_weight=15.042435601353644 24.203007593750954 45.70285165309906 12.18902303278446 194.71114331483841 11.663525357842444 59.642317607998848 11.141226977109911 16.574423462152481 47.430047616362572 8.4950133413076383 37.18320420384407 15.975110888481138 39.698486134409904 7.9181965142488471\nleaf_count=61 97 183 49 787 47 240 45 67 190 34 153 64 159 32\ninternal_value=-7.88914e-06 0.0345806 0.013322 -0.0297886 -0.0518449 -0.00349458 -0.023671 -0.0265441 0.0514292 0.0385597 -0.0619102 0.0433871 0.0594346 0.00817959\ninternal_weight=547.57 253.336 112.009 294.234 63.8892 71.8313 230.345 211.286 141.326 54.1979 52.2256 40.1781 87.1285 19.0594\ninternal_count=2208 1016 450 1192 261 289 931 854 566 217 214 161 349 77\nis_linear=0\nshrinkage=0.05\n\n\nTree=4\nnum_leaves=14\nnum_cat=0\nsplit_feature=3 3 12 3 8 5 2 3 5 5 3 5 5\nsplit_gain=204.518 22.6183 19.6063 19.4072 28.9536 12.9621 9.69079 9.31344 8.31411 5.26818 3.84922 6.09618 5.43919\nthreshold=0.0004176423504713424 0.0017081496646672485 0.0094136062103717961 -0.001503574456669241 0.0046896883337565398 0.0041343687027284035 -0.0017003275693919793 0.00095429113132103436 0.0045061831779669784 0.004503476261928584 0.0026106353181044521 0.0045491430797085118 0.0051186193407131196\ndecision_type=2 2 2 2 2 2 2 2 2 2 2 2 2\nleft_child=3 2 9 4 8 -5 -7 -4 -1 -2 11 -3 -12\nright_child=1 10 7 5 -6 6 -8 -9 -10 -11 12 -13 -14\nleaf_value=-0.01638967164209737 0.087672108108171193 0.066260358119458615 -0.014666541755952056 0.049160863250101279 0.050734716936334738 -0.0051424693206691026 -0.028919167265644488 0.021816783059079817 -0.049864399877205069 0.039949399751530834 0.045951454670626592 0.030264103369327472 0.07397937218397703\nleaf_weight=22.12981790304184 8.703778341412546 16.895241051912308 32.257391750812531 7.7020695209503165 8.4853291511535627 84.898759841918945 86.53477431833744 38.218294084072113 114.63664464652538 17.232713684439659 37.643445685505867 38.713265106081963 32.045467004179955\nleaf_count=90 35 68 130 31 34 342 351 153 470 69 151 155 129\ninternal_value=-9.44347e-06 0.0370024 0.0187965 -0.025306 -0.0388876 -0.0142934 -0.0171443 0.00511802 -0.0444479 0.0559642 0.0510113 0.0412007 0.0588397\ninternal_weight=546.097 221.71 96.4122 324.387 145.252 179.136 171.434 70.4757 136.766 25.9365 125.297 55.6085 69.6889\ninternal_count=2208 890 387 1318 594 724 693 283 560 104 503 223 280\nis_linear=0\nshrinkage=0.05\n\n\nTree=5\nnum_leaves=15\nnum_cat=0\nsplit_feature=3 3 7 3 8 10 10 10 12 8 8 8 8 6\nsplit_gain=186.011 29.6241 19.5298 13.8501 10.3046 10.0442 7.60475 9.19948 5.1897 6.96959 5.1746 4.57425 4.1336 2.71754\nthreshold=9.4704196739290298e-05 0.0014918272481097468 1.0000000180025095e-35 -0.0025487604774528517 0.0044108153673453653 -0.41677779560754918 0.76998261832711001 0.47597257625606021 0.027300644917302778 0.0044215168135984442 0.0034937361716284913 0.0043358340920704288 0.0031895895745088459 -0.00062445108580216891\ndecision_type=2 2 2 2 2 2 2 2 2 2 2 2 2 2\nleft_child=3 2 11 4 10 -4 7 -5 9 -3 -1 -2 -10 -8\nright_child=1 8 5 6 -6 -7 13 -9 12 -11 -12 -13 -14 -15\nleaf_value=-0.032812673946255581 0.048409979403910341 0.042301632604715138 0.038485238708893497 -0.021186066591546621 -0.0054794362975328498 -0.011767250416513888 0.024687332004544538 -0.060194440663322718 0.018668872863108959 -0.0070450159513838319 -0.0678215130623155 0.005620014309580092 0.057646942240049737 -0.013680309451017891\nleaf_weight=14.88193956017494 32.379946291446686 45.501738056540489 11.927449777722357 193.62926198542118 11.616189152002333 59.77987340092659 11.136618658900263 16.393968030810356 7.4417400658130637 8.490542918443678 36.303559571504593 7.7382095158100119 79.104183837771416 7.8812008798122397\nleaf_count=61 130 183 48 787 47 241 45 67 30 34 153 31 319 32\ninternal_value=-1.00483e-05 0.0314253 0.0122207 -0.027193 -0.0479944 -0.00340849 -0.0214894 -0.024231 0.0467063 0.0345416 -0.0576429 0.0401564 0.0542954 0.00878734\ninternal_weight=544.206 252.364 111.825 291.843 62.8017 71.7073 229.041 210.023 140.538 53.9923 51.1855 40.1182 86.5459 19.0178\ninternal_count=2208 1016 450 1192 261 289 931 854 566 217 214 161 349 77\nis_linear=0\nshrinkage=0.05\n\n\nTree=6\nnum_leaves=14\nnum_cat=0\nsplit_feature=3 3 7 3 8 5 5 3 2 5 5 5 3\nsplit_gain=168.548 18.7286 18.0415 16.7395 25.8155 11.3447 11.0552 10.8988 8.68938 7.45325 3.42387 11.7917 5.3842\nthreshold=0.0004176423504713424 0.0017081496646672485 0.0072043881317652722 -0.001503574456669241 0.0046896883337565398 0.0041343687027284035 0.0048327004965919712 0.00092428584363583031 -0.0015927914813207986 0.0045061831779669784 0.0049391776034567129 0.0047192796968196183 0.0025848554044236188\ndecision_type=2 2 2 2 2 2 2 2 2 2 2 2 2\nleft_child=3 2 6 4 9 -5 -2 -4 -7 -1 11 -3 -12\nright_child=1 10 7 5 -6 8 -8 -9 -10 -11 12 -13 -14\nleaf_value=-0.014515118653224199 0.057946706956863374 0.054109241766446048 -0.039904880279886534 0.046446640639469211 0.048741459060246489 -0.0044371939869819665 0.01329718817352347 0.012913057785127533 -0.027001568616330025 -0.046324178023059048 0.034713367510018599 0.0072385817129237183 0.064899941914332862\nleaf_weight=22.006909996271133 27.780639037489891 38.522374346852303 16.251073747873306 7.7142471075057975 8.4932245612144452 86.689417362213135 27.673621341586113 24.478116348385811 84.016500383615494 112.84441033005714 22.647369205951691 20.591700419783592 42.478506430983543\nleaf_count=90 112 156 66 31 34 350 111 98 343 470 91 83 173\ninternal_value=-1.09947e-05 0.0336709 0.0171066 -0.0230846 -0.035808 -0.0128625 0.035665 -0.00816146 -0.0155427 -0.0411331 0.0464946 0.0377824 0.0544026\ninternal_weight=542.188 220.423 96.1835 321.765 143.345 178.42 55.4543 40.7292 170.706 134.851 124.24 59.1141 65.1259\ninternal_count=2208 890 387 1318 594 724 223 164 693 560 503 239 264\nis_linear=0\nshrinkage=0.05\n\n\nTree=7\nnum_leaves=15\nnum_cat=0\nsplit_feature=3 3 7 3 8 5 6 10 10 8 12 8 0 6\nsplit_gain=153.689 24.4147 17.5581 12.1781 9.2196 7.45904 7.42189 6.86794 8.49 4.91188 4.69834 6.25238 4.16978 2.42816\nthreshold=9.4704196739290298e-05 0.0014918272481097468 -0.0041117113595469093 -0.0025487604774528517 0.0044108153673453653 0.00473773362465282 -0.00021193043635947537 0.76998261832711001 0.47597257625606021 0.0034937361716284913 0.027300644917302778 0.0044215168135984442 0.43767513358706939 -0.00062445108580216891\ndecision_type=2 2 2 2 2 2 2 2 2 2 2 2 2 2\nleft_child=3 2 5 4 9 -2 -4 8 -5 -1 11 -3 -12 -9\nright_child=1 10 6 7 -6 -7 -8 13 -10 -11 12 -13 -14 -15\nleaf_value=-0.029613470432424994 0.087333596607283209 0.038401781759328679 -0.016157028103514864 -0.019214530456834564 -0.004348778867341245 0.027825054266845495 0.013202715954687555 0.024299264125155019 -0.056935469065025106 -0.064017863072381817 0.059994480237882897 -0.0083858818838806765 0.037834716816958089 -0.012027006673176943\nleaf_weight=14.696672469377516 8.6478679478168505 45.147685259580612 36.125685676932335 192.42896899580956 11.559068650007246 13.464511707425116 53.260245829820633 11.129233390092852 16.17058826982975 35.274398371577263 46.499997615814209 8.4818586409091932 39.061319023370743 7.841342255473136\nleaf_count=61 35 183 146 787 47 54 215 45 67 153 190 34 159 32\ninternal_value=-1.11705e-05 0.0286396 0.0112055 -0.0248553 -0.0445908 0.0510981 0.00133686 -0.0195192 -0.0221386 -0.0538994 0.0426051 0.031002 0.0498779 0.00928408\ninternal_weight=539.789 250.689 111.498 289.1 61.5301 22.1124 89.3859 227.57 208.6 49.9711 139.191 53.6295 85.5613 18.9706\ninternal_count=2208 1016 450 1192 261 89 361 931 854 214 566 217 349 77\nis_linear=0\nshrinkage=0.05\n\n\nTree=8\nnum_leaves=14\nnum_cat=0\nsplit_feature=3 3 7 3 8 5 5 3 2 8 7 0 10\nsplit_gain=139.369 15.595 16.1146 14.4663 23.0528 9.95536 9.82343 9.61492 7.80506 6.88341 3.36092 6.76962 2.53544\nthreshold=0.0004176423504713424 0.0017081496646672485 0.0072043881317652722 -0.001503574456669241 0.0046896883337565398 0.0046009383873709866 0.0041343687027284035 0.00092428584363583031 -0.0017003275693919793 0.0034937361716284913 0.029744795250660209 0.43767513358706939 -0.26205836849178876\ndecision_type=2 2 2 2 2 2 2 2 2 2 2 2 2\nleft_child=3 2 5 4 9 -2 -5 -4 -8 -1 11 -3 -12\nright_child=1 10 7 6 -6 -7 8 -9 -10 -11 12 -13 -14\nleaf_value=-0.023025192493191824 0.060954748169343577 0.044611313521183082 -0.038191125621615557 0.043615107444353186 0.046815061430278644 0.016964573041451943 -0.0033294958106966479 0.011501356903345715 -0.024761888863710047 -0.046723306957925606 0.036492483757125029 0.010631420687673334 0.070549492673585318\nleaf_weight=48.009794652462006 20.394743621349335 80.313961610198021 16.168508872389793 7.7064250558614722 8.494207948446272 34.818660050630569 84.511950075626373 24.461224228143692 85.409104526042938 84.703178957104683 8.2289023399353045 17.929725155234337 16.269737511873245\nleaf_count=199 83 329 66 31 34 140 342 98 351 361 34 73 67\ninternal_value=-1.15709e-05 0.0307401 0.0156264 -0.0210942 -0.0330393 0.0332137 -0.0115982 -0.00827365 -0.0141023 -0.0381504 0.0425415 0.0384099 0.05911\ninternal_weight=537.42 218.585 95.8431 318.835 141.207 55.2134 177.627 40.6297 169.921 132.713 122.742 98.2437 24.4986\ninternal_count=2208 890 387 1318 594 223 724 164 693 560 503 402 101\nis_linear=0\nshrinkage=0.05\n\n\nTree=9\nnum_leaves=13\nnum_cat=0\nsplit_feature=3 3 7 3 3 8 4 12 5 8 21 5\nsplit_gain=127.18 20.2629 14.732 10.7999 8.83271 8.3487 6.64323 6.68134 6.55736 4.51972 3.22518 3.77082\nthreshold=9.4704196739290298e-05 0.0017081496646672485 -0.0041117113595469093 -0.0025487604774528517 0.00092428584363583031 0.0044108153673453653 -1.0610464276297884 0.00055861067011042664 0.00473773362465282 0.0034937361716284913 -1.0000000180025095e-35 0.0049113881234632778\ndecision_type=2 2 2 2 2 2 2 2 2 2 2 2\nleft_child=3 2 8 5 -4 9 -5 -8 -2 -1 -3 -12\nright_child=1 10 4 6 -6 -7 7 -9 -10 -11 11 -13\nleaf_value=-0.027284647142431024 0.082655980857278405 0.0095490086096052668 -0.0090659912561137559 0.015913001336845266 0.020160783765133375 -0.0032378754597862432 -0.047892541505722613 -0.017100877863354499 0.027266883603509536 -0.060576922443408204 0.032983077932668262 0.051218109191680988\nleaf_weight=14.540780678391455 8.7629910409450549 7.7779787331819525 56.807833954691887 13.778983205556868 47.437211230397224 11.489716723561285 19.388589888811111 192.82833318412304 13.693135067820547 34.106039941310883 52.527929618954659 61.594881415367126\nleaf_count=61 36 32 231 57 191 47 80 794 55 153 216 255\ninternal_value=-1.16058e-05 0.0261487 0.012147 -0.0227406 0.00423379 -0.0415718 -0.0177297 -0.0199141 0.0488812 -0.0506257 0.0407018 0.042825\ninternal_weight=534.734 248.602 126.701 286.132 104.245 60.1365 225.996 212.217 22.4561 48.6468 121.901 114.123\ninternal_count=2208 1016 513 1192 422 261 931 874 91 214 503 471\nis_linear=0\nshrinkage=0.05\n\n\nTree=10\nnum_leaves=14\nnum_cat=0\nsplit_feature=3 3 7 5 3 2 3 6 5 4 12 17 0\nsplit_gain=115.377 18.5743 14.1244 10.584 13.1036 11.0222 7.68382 6.64065 6.19315 5.9842 4.35254 6.12064 3.82211\nthreshold=9.4704196739290298e-05 0.0014918272481097468 -0.0041117113595469093 0.0057453461678276044 -0.001503574456669241 0.0083671333879253868 -0.0013644334042441728 -0.00021193043635947537 0.00473773362465282 -0.23580579300838797 0.027300644917302778 1.0000000180025095e-35 0.43767513358706939\ndecision_type=2 2 2 2 2 2 2 2 2 2 2 2 2\nleft_child=3 2 8 4 5 -1 -5 -4 -2 -6 11 -3 -12\nright_child=1 10 7 6 9 -7 -8 -9 -10 -11 12 -13 -14\nleaf_value=-0.038894435905898479 0.079446163637745454 0.053301174049100022 -0.015660436389706756 0.051440768820748044 -0.0060337997183935125 0.024633768171684538 -0.01818795073864277 0.012160723264010187 0.02472577148776341 -0.02823147682320791 0.054227777210852063 0.015448011417141225 0.032781643327206005\nleaf_weight=123.72119536995888 8.4083814322948474 14.846755191683767 35.978490829467773 8.2392731606960279 92.719397529959679 7.2265480011701575 7.6328493207693091 53.110755294561386 13.428829461336134 45.145499646663666 45.326579913496971 38.042297065258026 38.355107888579369\nleaf_count=531 35 61 146 34 379 30 31 215 54 187 190 156 159\ninternal_value=-1.16617e-05 0.0249571 0.00975852 -0.0217188 -0.0240615 -0.0353885 0.0179566 0.000925211 0.0457958 -0.0133027 0.0373018 0.026074 0.044398\ninternal_weight=532.182 247.497 110.926 284.685 268.813 130.948 15.8721 89.0892 21.8372 137.865 136.571 52.8891 83.6817\ninternal_count=2208 1016 450 1192 1127 561 65 361 89 566 566 217 349\nis_linear=0\nshrinkage=0.05\n\n\nTree=11\nnum_leaves=14\nnum_cat=0\nsplit_feature=3 3 3 12 3 8 4 12 5 2 8 3 3\nsplit_gain=105.03 12.07 12.0254 11.4135 13.0617 7.67863 5.88776 6.5373 5.06592 5.25968 4.39273 2.89683 2.47648\nthreshold=0.0004176423504713424 0.0025848554044236188 -0.0025487604774528517 0.0069283767333981902 0.00095429113132103436 0.0044108153673453653 -1.0610464276297884 0.00055861067011042664 0.0051186193407131196 0.0018406500132228667 0.0034937361716284913 0.0035788183563041985 0.00077445997420576252\ndecision_type=2 2 2 2 2 2 2 2 2 2 2 2 2\nleft_child=2 3 5 12 -5 10 -4 -8 9 -3 -1 -10 -2\nright_child=1 8 6 4 -6 -7 7 -9 11 -11 -12 -13 -14\nleaf_value=-0.024623388254868962 0.079926337561030625 0.011791500059242607 0.017770321678020892 -0.011389900008222929 0.023819761340798495 -0.0020728395627011352 -0.043438446053568509 -0.013151502580378425 0.0736176260652361 0.049181034774250829 -0.057772968661956081 0.042537471702928542 0.039280947470007377\nleaf_weight=14.338724389672278 7.7068252563476545 17.312153697013855 14.000322327017782 36.326680511236191 95.812868982553482 11.435916125774382 19.370629251003265 222.09684470295906 16.552543565630916 20.595741167664528 32.977467879652977 13.704194247722624 7.2948467582464218\nleaf_count=61 32 72 58 148 392 47 81 918 71 86 153 59 30\ninternal_value=-1.12553e-05 0.02689 -0.0184442 0.0188323 0.0141402 -0.0388408 -0.0137534 -0.0155811 0.0442833 0.0321056 -0.0477273 0.0595405 0.0601617\ninternal_weight=529.526 215.306 314.22 147.141 132.14 58.7521 255.468 241.467 68.1646 37.9079 47.3162 30.2567 15.0017\ninternal_count=2208 890 1318 602 540 261 1057 999 288 158 214 130 62\nis_linear=0\nshrinkage=0.05\n\n\nTree=12\nnum_leaves=14\nnum_cat=0\nsplit_feature=3 3 7 5 3 2 3 3 5 4 1 17 5\nsplit_gain=95.8409 15.7851 12.0856 9.58662 11.6704 9.95504 6.98933 6.87741 5.81632 5.49413 2.99583 8.11892 4.70693\nthreshold=9.4704196739290298e-05 0.0017081496646672485 -0.0041117113595469093 0.0057453461678276044 -0.001503574456669241 0.0083671333879253868 -0.0013644334042441728 0.00092428584363583031 0.00473773362465282 -0.23580579300838797 0.0089046625164128663 1.0000000180025095e-35 0.0047089678539738384\ndecision_type=2 2 2 2 2 2 2 2 2 2 2 2 2\nleft_child=3 2 8 4 5 -1 -5 -4 -2 -6 11 -3 -12\nright_child=1 10 7 6 9 -7 -8 -9 -10 -11 12 -13 -14\nleaf_value=-0.036358481365719106 0.076625380597093479 0.053367826655348373 -0.0083700690930040671 0.04977734126080887 -0.0050420877687715835 0.024001107189141439 -0.016691122105137922 0.01746427955960669 0.023862101594739449 -0.02637853523836424 0.058155277137057475 -0.0066022942897574965 0.033119667098211729\nleaf_weight=121.48010689020157 8.4737004637718218 10.041934415698051 56.656591206789017 8.2423108518123609 92.445078954100609 7.2381162345409384 7.6033657491207114 47.242188110947609 13.615343898534773 44.789220735430717 25.574018433690071 12.885857939720154 70.609499499201775\nleaf_count=531 36 42 231 34 379 30 31 191 55 187 108 53 300\ninternal_value=-1.0701e-05 0.0228548 0.0105171 -0.0198984 -0.0221494 -0.0329643 0.0178832 0.00337666 0.0441029 -0.0120057 0.0359048 0.0196635 0.0397763\ninternal_weight=526.897 245.099 125.988 281.798 265.953 128.718 15.8457 103.899 22.089 137.234 119.111 22.9278 96.1835\ninternal_count=2208 1016 513 1192 1127 561 65 422 91 566 503 95 408\nis_linear=0\nshrinkage=0.05\n\n\nTree=13\nnum_leaves=14\nnum_cat=0\nsplit_feature=3 3 7 5 3 2 3 3 5 4 7 0 10\nsplit_gain=87.007 14.4974 11.0298 8.70602 10.7664 9.09907 6.29042 6.21472 5.46436 5.00622 3.03018 6.50601 2.49167\nthreshold=9.4704196739290298e-05 0.0017081496646672485 -0.0041117113595469093 0.0057453461678276044 -0.001503574456669241 0.0083671333879253868 -0.0013644334042441728 0.00092428584363583031 0.00473773362465282 -0.23580579300838797 0.029744795250660209 0.43767513358706939 -0.26205836849178876\ndecision_type=2 2 2 2 2 2 2 2 2 2 2 2 2\nleft_child=3 2 8 4 5 -1 -5 -4 -2 -6 11 -3 -12\nright_child=1 10 7 6 9 -7 -8 -9 -10 -11 12 -13 -14\nleaf_value=-0.034907547736624051 0.07415994838068872 0.036664957291677812 -0.007956996184319538 0.04716202766211168 -0.0047936843509610513 0.022712626494194924 -0.015891887047763186 0.016613828458701029 0.022712332973816928 -0.025200846746717867 0.027641431840940034 0.0028683426190634518 0.062236482878878535\nleaf_weight=120.23512323200703 8.3214829266071337 77.351733937859535 56.618903204798698 8.2638009190559369 92.375517427921295 7.265562415122985 7.5868962258100501 47.179088115692139 13.590012550354002 44.544541582465172 7.8522752970457104 17.452899888157845 15.437036111950873\nleaf_count=531 36 329 231 34 379 30 31 191 55 187 34 73 67\ninternal_value=-1.00379e-05 0.0218333 0.0100159 -0.0190112 -0.0211688 -0.0316241 0.0169814 0.00321113 0.042251 -0.0114328 0.0344129 0.0304432 0.0505723\ninternal_weight=524.075 243.803 125.709 280.271 264.421 127.501 15.8507 103.798 21.9115 136.92 118.094 94.8046 23.2893\ninternal_count=2208 1016 513 1192 1127 561 65 422 91 566 503 402 101\nis_linear=0\nshrinkage=0.05\n\n\nTree=14\nnum_leaves=14\nnum_cat=0\nsplit_feature=3 3 3 7 3 8 8 4 12 5 5 12 3\nsplit_gain=79.2115 10.3579 9.85143 10.5387 14.8957 11.1063 6.98984 5.5197 5.93277 4.92085 4.38596 4.18716 3.69973\nthreshold=0.00044565024797560226 -0.0025487604774528517 0.0025848554044236188 0.0059677827374395873 0.00092428584363583031 0.0043897311898443711 0.0044108153673453653 -1.0610464276297884 0.00055861067011042664 0.0050806201896361454 0.004993963813282285 0.041308999324773839 0.0035788183563041985\ndecision_type=2 2 2 2 2 2 2 2 2 2 2 2 2\nleft_child=1 6 3 5 -5 -2 10 -3 -9 11 -1 -4 -11\nright_child=2 7 9 4 -6 -7 -8 8 -10 12 -12 -13 -14\nleaf_value=-0.027773547366609665 0.043977809610556397 0.018934148470441184 0.016408251692468036 -0.035198107731923473 0.016014260832617318 -0.016363891926745155 -0.00015879486259393245 -0.040283598250142702 -0.011162623182025809 0.069980482758657148 -0.058885987993362837 0.054527613100605957 0.034896318460100821\nleaf_weight=21.622860997915268 45.094081670045853 13.912328496575354 25.627228111028671 17.726215794682503 71.352466449141502 9.1775482892990095 11.320528790354727 18.984840676188469 222.09946598112583 17.016798079013828 23.790949583053589 10.020781233906744 13.456318333745001\nleaf_count=100 187 58 109 73 296 37 47 81 927 76 114 43 60\ninternal_value=-9.31255e-06 -0.0159877 0.0237694 0.0164052 0.00582325 0.0337738 -0.0353101 -0.0116887 -0.0134558 0.0397351 -0.0440724 0.0271237 0.054488\ninternal_weight=521.202 311.731 209.471 143.35 89.0787 54.2716 56.7343 254.997 241.084 66.1211 45.4138 35.648 30.4731\ninternal_count=2208 1327 881 593 369 224 261 1066 1008 288 214 152 136\nis_linear=0\nshrinkage=0.05\n\n\nTree=15\nnum_leaves=13\nnum_cat=0\nsplit_feature=3 3 7 5 11 11 20 3 6 5 10 9\nsplit_gain=72.3916 12.2794 9.93779 7.90823 9.64963 9.78207 8.82851 5.75402 5.34112 5.22204 2.96874 3.55746\nthreshold=9.4704196739290298e-05 0.0017081496646672485 -0.0041117113595469093 0.0057453461678276044 -0.032305345626458641 -0.045539279091550637 1.0000000180025095e-35 -0.0013644334042441728 -0.00021193043635947537 0.00473773362465282 0.78204624412371204 1.066726442017303\ndecision_type=2 2 2 2 2 2 2 2 2 2 2 2\nleft_child=3 2 9 4 5 -1 -6 -5 -4 -2 11 -3\nright_child=1 10 8 7 6 -7 -8 -9 -10 -11 -12 -13\nleaf_value=-0.007005082324866148 0.071701733626127293 0.024228127813452984 -0.010890900756168958 0.04578770355748675 0.0049030176550246421 -0.044109709259482932 -0.019887765386026341 -0.01460379017659947 0.012208415811579247 0.020953482492777054 0.060606086065595546 0.045093845060889211\nleaf_weight=25.115213602781296 8.1094926595687884 80.38686166703701 42.498750880360603 8.2505584359168989 50.313267141580582 60.677669554948807 125.47227945923805 7.5567289292812339 60.864474236965179 13.521176546812056 8.2756181061267835 27.386726275086403\nleaf_count=113 36 347 174 34 208 267 539 31 248 55 36 120\ninternal_value=-8.7367e-06 0.0200343 0.00916036 -0.0174258 -0.0195012 -0.0332476 -0.0127922 0.0169173 0.00271092 0.0399794 0.0317464 0.0295304\ninternal_weight=518.429 241.043 124.994 277.386 261.578 85.7929 175.786 15.8073 103.363 21.6307 116.049 107.774\ninternal_count=2208 1016 513 1192 1127 380 747 65 422 91 503 467\nis_linear=0\nshrinkage=0.05\n\n\nTree=16\nnum_leaves=15\nnum_cat=0\nsplit_feature=3 3 3 5 10 7 8 8 10 10 7 5 9 3\nsplit_gain=65.8608 9.37134 8.64335 10.6531 8.86619 6.90155 6.49548 6.11765 4.75471 9.30613 4.4977 4.45354 4.00905 2.7168\nthreshold=0.00044565024797560226 -0.0026618744530339891 0.0026106353181044521 0.0046009383873709866 -0.44329218871995585 0.0048534381936534707 0.0042212939919626232 0.0034937361716284913 0.76998261832711001 0.53739855217699606 -0.0043800059542643535 0.0051186193407131196 0.97393472402181536 0.0035788183563041985\ndecision_type=2 2 2 2 2 2 2 2 2 2 2 2 2 2\nleft_child=1 6 3 5 -5 -2 7 -1 9 -3 -10 12 -4 -13\nright_child=2 8 11 4 -6 -7 -8 -9 10 -11 -12 13 -14 -15\nleaf_value=-0.017343167408127681 0.059518530385506578 -0.01014358594928598 0.045280597905553194 0.037912764684074132 -0.0014816221504441115 0.019900075257494571 -0.0045958542360334644 -0.060366986581184723 0.029734992705142613 -0.049416129023225161 -0.018816147339893965 0.066550658940011054 0.010903975757943421 0.035313325067442967\nleaf_weight=12.660165026783941 17.45732581615448 222.30608409643173 14.634147197008131 17.409494385123253 79.521703094244003 29.682691514492035 13.297301083803175 23.785653308033943 13.200235694646837 16.182563289999962 7.4693257957696906 15.090004563331606 20.171362608671188 12.920604214072226\nleaf_count=56 75 937 63 72 328 126 58 120 55 70 31 70 88 59\ninternal_value=-8.1239e-06 -0.0146301 0.0218237 0.0150755 0.00559387 0.0345719 -0.0345083 -0.0454218 -0.0108146 -0.0128084 0.0121901 0.0373011 0.0253578 0.0521416\ninternal_weight=515.789 308.901 206.887 144.071 96.9312 47.14 49.7431 36.4458 259.158 238.489 20.6696 62.8161 34.8055 28.0106\ninternal_count=2208 1327 881 601 400 201 234 176 1093 1007 86 280 151 129\nis_linear=0\nshrinkage=0.05\n\n\nTree=17\nnum_leaves=14\nnum_cat=0\nsplit_feature=3 3 7 3 8 10 10 8 5 8 21 5 7\nsplit_gain=60.2985 10.6148 9.15107 7.15639 6.10069 5.98486 7.16819 5.87961 4.86671 4.84606 2.9677 3.23745 2.45002\nthreshold=9.4704196739290298e-05 0.0017081496646672485 -0.0041117113595469093 -0.0026618744530339891 0.0042212939919626232 0.76998261832711001 0.47597257625606021 0.0034937361716284913 0.00473773362465282 0.0031234778863634609 -1.0000000180025095e-35 0.0049113881234632778 -0.0059604451643063263\ndecision_type=2 2 2 2 2 2 2 2 2 2 2 2 2\nleft_child=3 2 8 4 7 6 -5 -1 -2 -4 -3 -12 -7\nright_child=1 10 9 5 -6 12 -8 -9 -10 -11 11 -13 -14\nleaf_value=-0.016567347922199445 0.069346883330914627 -0.0012217112338235117 0.02880570530004152 -0.012077710576304974 -0.0043706419453324241 0.028281038290398287 -0.047761580774838094 -0.05902832998548832 0.019849832005303186 -0.0022815788208767713 0.022200071483426568 0.039661370346951705 -0.0086079164314461012\nleaf_weight=12.592140495777128 7.8639376461505917 7.3992311954498282 14.60365082323551 191.25224925577641 13.283724486827849 12.021918535232546 15.191505834460257 23.1256283223629 13.476769506931303 88.546393439173698 49.71496170759201 56.958815231919289 7.1948936879634848\nleaf_count=56 36 32 60 811 58 50 67 120 55 362 216 255 30\ninternal_value=-7.69571e-06 0.0183816 0.00828571 -0.0159802 -0.0332999 -0.0122192 -0.0147036 -0.0440589 0.0380892 0.00211966 0.0293996 0.0315236 0.0144696\ninternal_weight=513.226 238.564 124.491 274.662 49.0015 225.661 206.444 35.7178 21.3407 103.15 114.073 106.674 19.2168\ninternal_count=2208 1016 513 1192 234 958 878 176 91 422 503 471 80\nis_linear=0\nshrinkage=0.05\n\n\nTree=18\nnum_leaves=15\nnum_cat=0\nsplit_feature=3 3 2 17 5 2 12 3 12 3 3 5 12 3\nsplit_gain=54.8979 9.44081 11.392 13.2797 8.77833 7.65779 6.84401 6.52024 7.93207 7.42129 6.95199 4.18227 4.09715 2.64541\nthreshold=0.00062224214815025417 -0.00076728691356919116 -0.0015927914813207986 1.0000000180025095e-35 0.0057453461678276044 -0.0039025814630766482 0.017060367583723427 0.0026106353181044521 0.0094136062103717961 0.0013220282982281271 0.0010275881839477701 0.0051186193407131196 0.041308999324773839 0.0035788183563041985\ndecision_type=2 2 2 2 2 2 2 2 2 2 2 2 2 2\nleft_child=1 4 5 -4 6 -3 -1 8 10 -10 -2 12 -9 -13\nright_child=7 2 3 -5 -6 -7 -8 11 9 -11 -12 13 -14 -15\nleaf_value=-0.024614907610782846 0.075696067326459421 0.00073410342661759222 -0.062189432987689877 -0.0046630245738842526 0.022908605099478729 0.037907874794639487 0.010504631457367911 0.012164104881625351 -0.007851049182193268 0.01939550097502981 0.015132394124386212 0.063992254825018899 0.050359328525979158 0.032657598235631267\nleaf_weight=174.32270404696465 9.2773218303918856 40.105674117803574 12.841015785932539 45.863642886281013 11.643678292632101 21.164923593401909 15.071861356496809 24.443187087774277 38.733300909399986 70.444163292646408 9.6847338378429395 14.48684135079384 9.8505443930625898 12.5889645665884\nleaf_count=779 40 166 54 193 48 86 64 107 158 299 41 70 44 59\ninternal_value=-7.78069e-06 -0.0126056 -0.00150598 -0.0172463 -0.0192295 0.0135752 -0.0218201 0.0213319 0.0149135 0.00972914 0.0447636 0.0347333 0.0231353 0.0494231\ninternal_weight=510.523 321.014 119.975 58.7047 201.038 61.2706 189.395 189.509 128.14 109.177 18.9621 61.3695 34.2937 27.0758\ninternal_count=2208 1390 499 247 891 252 843 818 538 457 81 280 151 129\nis_linear=0\nshrinkage=0.05\n\n\nTree=19\nnum_leaves=15\nnum_cat=0\nsplit_feature=3 3 8 7 3 12 8 10 10 2 5 5 0 6\nsplit_gain=49.933 8.38664 9.05002 10.4706 6.96998 5.85508 5.84698 5.59725 8.50459 4.41594 4.45739 4.35224 3.18082 2.26136\nthreshold=0.00020326373193030493 0.0025848554044236188 0.0044215168135984442 0.0059677827374395873 -0.0025487604774528517 0.017919339701378826 0.0044108153673453653 0.76998261832711001 0.47597257625606021 0.0018406500132228667 0.0049465441776092864 0.004993963813282285 0.41409425764356034 -0.00062445108580216891\ndecision_type=2 2 2 2 2 2 2 2 2 2 2 2 2 2\nleft_child=4 2 3 -2 6 -4 11 8 -6 10 -3 -1 -11 -9\nright_child=1 9 5 -5 7 -7 -8 13 -10 12 -12 -13 -14 -15\nleaf_value=-0.022180565983725038 0.033832407822171062 -0.0068257057088017634 -0.036529648380715499 0.0052688947706327708 -0.0096964866603480842 0.0070301344386689436 0.0018573119019963805 0.030141638107331961 -0.047793833050371756 0.062152193952153136 0.035967765052521104 -0.054287873356052008 0.032371224610901618 -0.0045460222428394094\nleaf_weight=20.435178637504578 55.529439955949783 11.093184918165209 14.06868650019169 75.989226952195168 194.16800387203693 17.079949006438255 11.207774832844732 11.187601298093798 15.844217821955679 14.607485413551329 13.478720664978026 21.829563915729523 23.216030985116959 8.1005020141601545\nleaf_count=100 235 48 57 320 825 71 47 46 71 69 63 114 108 34\ninternal_value=-6.73557e-06 0.0175672 0.0115894 0.0173289 -0.0139941 -0.0126442 -0.0302497 -0.0102033 -0.0125707 0.0331515 0.0166483 -0.0387639 0.0438727 0.0155737\ninternal_weight=507.836 225.063 162.667 131.519 282.773 31.1486 53.4725 229.3 210.012 62.3954 24.5719 42.2647 37.8235 19.2881\ninternal_count=2208 971 683 555 1237 128 261 976 896 288 111 214 177 80\nis_linear=0\nshrinkage=0.05\n\n\nTree=20\nnum_leaves=14\nnum_cat=0\nsplit_feature=3 3 8 5 2 8 3 12 3 3 5 9 3\nsplit_gain=45.6957 8.10048 14.5395 8.90102 7.2228 6.53925 5.58185 6.89089 6.92267 6.56494 3.90755 3.93555 2.58474\nthreshold=0.00062224214815025417 -0.001503574456669241 0.0046896883337565398 0.0041343687027284035 -0.0015927914813207986 0.0035383310281783984 0.0026106353181044521 0.0094136062103717961 0.00095429113132103436 0.0010275881839477701 0.0051186193407131196 0.97393472402181536 0.0035788183563041985\ndecision_type=2 2 2 2 2 2 2 2 2 2 2 2 2\nleft_child=1 2 5 -3 -5 -1 7 9 -9 -2 11 -8 -12\nright_child=6 3 -4 4 -6 -7 10 8 -10 -11 12 -13 -14\nleaf_value=-0.011309934539578233 0.072437384578291006 0.044023810232382159 0.042372714405463835 0.002488152850907525 -0.017493249785482581 -0.035159736382508189 0.041068989111350089 -0.01681348226521362 0.015071992657130058 0.012993760982641767 0.061557788957179074 0.0064526799027484344 0.030010749212470534\nleaf_weight=47.688773974776268 9.0147979259490985 8.837535232305525 8.3969272524118406 91.70403765141964 89.235963329672813 72.335322320461273 14.139514923095701 21.131460145115852 87.547761917114258 9.5813602805137617 13.827217221260073 19.581946477293968 12.24098779261112\nleaf_count=213 40 37 34 379 380 347 63 87 370 41 70 88 59\ninternal_value=-6.57221e-06 -0.0115357 -0.0212337 -0.00497315 -0.00736627 -0.0256836 0.0196045 0.0136848 0.00887222 0.04181 0.032206 0.0209674 0.0467441\ninternal_weight=505.264 318.199 128.421 189.778 180.94 120.024 187.065 127.275 108.679 18.5962 59.7897 33.7215 26.0682\ninternal_count=2208 1390 594 796 759 560 818 538 457 81 280 151 129\nis_linear=0\nshrinkage=0.05\n\n\nTree=21\nnum_leaves=15\nnum_cat=0\nsplit_feature=3 3 7 10 11 20 4 11 5 5 2 5 5 11\nsplit_gain=41.6247 8.06575 8.63276 8.33361 5.97299 7.85463 7.40321 6.95359 11.3735 10.5429 5.97588 5.12703 9.41709 3.65379\nthreshold=9.4704196739290298e-05 0.0014918272481097468 1.0000000180025095e-35 -0.41677779560754918 -0.032305345626458641 1.0000000180025095e-35 -1.0429501655877518 -0.045539279091550637 0.0053650670736157561 0.0050285381523897154 -0.00021265649762358671 0.004616895735868075 0.0049354062819150883 -0.0038063441966387774\ndecision_type=2 2 2 2 2 2 2 2 2 2 2 2 2 2\nleft_child=4 2 -2 -4 7 6 -6 9 -9 -1 -7 13 -13 -3\nright_child=1 11 3 -5 5 10 -8 8 -10 -11 -12 12 -14 -15\nleaf_value=0.039430641107687153 0.024741911505909923 0.01865996576093706 0.033573809091811943 -0.012587146786720297 0.053354829953552729 -0.035479049060358057 0.00018137621565892669 -0.044321100523405391 0.0080132872349248582 -0.027569424250806301 -0.0093345846999405031 -0.0037202604173442949 0.029616632143938251 0.05471924183661462\nleaf_weight=9.5295409113168734 37.736934587359428 10.915512457489969 11.732184186577795 58.681985333561897 7.5961704254150382 28.018054664134979 47.344350352883339 48.728664338588715 13.192019224166868 15.295771315693854 99.388443723320961 32.027782261371613 62.567636415362358 19.710338443517685\nleaf_count=43 161 48 48 241 32 125 197 226 58 74 437 139 290 89\ninternal_value=-5.59733e-06 0.0154476 0.00544552 -0.00489596 -0.0134075 -0.00826953 0.00753323 -0.0242079 -0.0331714 -0.00185052 -0.015084 0.0240862 0.0183295 0.0418672\ninternal_weight=502.465 233.372 108.151 70.4142 269.093 182.347 54.9405 86.746 61.9207 24.8253 127.406 125.221 94.5954 30.6259\ninternal_count=2208 1016 450 289 1192 791 229 401 284 117 562 566 429 137\nis_linear=0\nshrinkage=0.05\n\n\nTree=22\nnum_leaves=14\nnum_cat=0\nsplit_feature=3 3 8 8 4 5 3 7 3 6 5 12 3\nsplit_gain=38.0187 7.33706 7.58742 6.55647 6.45007 5.52396 5.02907 6.48275 9.2754 5.7587 3.65557 3.83634 2.54726\nthreshold=0.00062224214815025417 -0.0023610911740517067 0.0044215168135984442 0.0034937361716284913 -1.0610464276297884 0.0043068360956042074 0.0026106353181044521 0.0055023598750828526 0.00092428584363583031 -0.00021193043635947537 0.0051186193407131196 0.041308999324773839 0.0035788183563041985\ndecision_type=2 2 2 2 2 2 2 2 2 2 2 2 2\nleft_child=1 2 3 -1 -3 -6 7 9 -9 -2 11 -8 -12\nright_child=6 4 -4 -5 5 -7 10 8 -10 -11 12 -13 -14\nleaf_value=-0.0079605753103176545 0.01000462232243418 0.028583471814631931 0.007647371063313581 -0.04687390950968634 0.012997354251771013 -0.011213485849193672 0.008586738361088914 -0.034308931170737592 0.011559197737855957 0.047702324302687255 0.059608393576997265 0.046264934471262009 0.027759122731275527\nleaf_weight=15.78458923101425 20.239052653312683 12.305896520614622 13.441984757781027 34.448437735438347 26.491418406367302 212.89429786801338 23.847880721092224 12.99268054962158 72.657398253679276 20.283343821763992 13.24411863088608 9.4261051267385465 11.935507923364638\nleaf_count=72 87 52 57 186 113 910 107 54 310 87 70 44 59\ninternal_value=-6.03735e-06 -0.0105554 -0.025718 -0.0346463 -0.00671943 -0.00853421 0.0180137 0.0123969 0.00460124 0.0288741 0.0301376 0.0192605 0.0445114\ninternal_weight=499.993 315.367 63.675 50.233 251.692 239.386 184.626 126.172 85.6501 40.5224 58.4536 33.274 25.1796\ninternal_count=2208 1390 315 258 1075 1023 818 538 364 174 280 151 129\nis_linear=0\nshrinkage=0.05\n\n\nTree=23\nnum_leaves=15\nnum_cat=0\nsplit_feature=3 3 7 8 8 8 5 3 11 5 5 11 5 11\nsplit_gain=34.9712 8.15366 10.4041 6.50333 9.66757 6.11148 6.0834 11.4546 5.37347 4.91503 8.49152 4.3048 3.72647 3.47916\nthreshold=-0.00017642034830308578 0.0014918272481097468 -0.0041117113595469093 0.0040476061946754403 0.0039059889819579646 0.0031234778863634609 0.0049515837071486537 -0.0011560976283641175 -0.045539279091550637 0.004616895735868075 0.0049354062819150883 -0.038426436610600294 0.004577366797927424 -0.0038063441966387774\ndecision_type=2 2 2 2 2 2 2 2 2 2 2 2 2 2\nleft_child=3 2 12 4 8 -4 7 -5 -1 13 -11 -8 -2 -3\nright_child=1 9 5 6 -6 -7 11 -9 -10 10 -12 -13 -14 -15\nleaf_value=0.01160281971881629 0.059667066278277718 0.017064922309798013 0.026952298599873293 -0.061519068125014391 -0.051649324186685233 -0.0082312177895263773 -0.022571159471722307 0.017061711592406902 -0.018511764092958693 -0.0044011056601125191 0.027413653619509759 0.01065579435117997 0.019627025386367191 0.052532448080664096\nleaf_weight=16.890245959162712 7.9734433144331005 10.796400263905527 14.366682499647139 10.702986598014833 20.459722489118576 87.607616305351257 11.877465367317198 8.1833075881004316 120.44200551509857 31.899452120065689 61.233234465122223 54.368581011891365 21.426115319132805 19.229784071445465\nleaf_count=80 37 48 60 49 96 363 53 35 541 139 290 238 90 89\ninternal_value=-5.775e-06 0.0129455 0.00428077 -0.0135759 -0.019585 -0.00327438 -0.00243814 -0.0274705 -0.014808 0.0221881 0.0165166 0.00469843 0.0304863 0.0397795\ninternal_weight=497.457 254.533 131.374 242.924 157.792 101.974 85.1323 18.8863 137.332 123.159 93.1327 66.246 29.3996 30.0262\ninternal_count=2208 1116 550 1092 717 423 375 84 621 566 429 291 127 137\nis_linear=0\nshrinkage=0.05\n\n\nTree=24\nnum_leaves=15\nnum_cat=0\nsplit_feature=3 1 2 2 8 9 5 5 7 11 11 3 5 1\nsplit_gain=31.8161 6.45826 10.5827 10.3561 6.29117 7.61618 6.70412 6.95455 5.98238 5.34061 10.1571 9.80321 4.87976 2.19142\nthreshold=0.00047825366858952347 -0.01340024475268786 -0.0017003275693919793 -0.00088871441251708861 0.0044215168135984442 1.0569601826187351 0.0051131327614845502 0.0046009383873709866 -0.012686514866241115 -0.045539279091550637 -0.03877495770079719 -0.002892348041527592 0.0050248246502055931 0.017477797689699041\ndecision_type=2 2 2 2 2 2 2 2 2 2 2 2 2 2\nleft_child=1 9 8 -4 6 12 7 -2 -3 11 -11 -1 -6 -8\nright_child=4 2 3 -5 5 -7 13 -9 -10 10 -12 -13 -14 -15\nleaf_value=-0.044361272451120232 0.028410634996952913 0.041716283353125216 -0.054529204150937496 -0.0086277127868811497 0.019002657274552602 0.046303314572027555 0.026639023172657952 0.0040364440935843722 0.0037755335385290033 -0.052359318531497091 -0.013502014197166685 0.022215672437759827 -0.027318607267678069 0.050271544735803524\nleaf_weight=8.4194619208574313 49.740926519036293 12.764225974678991 13.68083034455776 120.70477302372456 7.8493303805589703 6.2747657746076575 20.709920614957809 71.091719299554825 55.848992690443993 26.416435658931732 46.283399507403374 16.10663777589798 20.625835105776787 18.637214243412018\nleaf_count=45 225 54 59 530 33 30 92 308 232 124 220 72 91 93\ninternal_value=-5.74542e-06 -0.0102184 -0.00514326 -0.0133006 0.0157235 -0.00356169 0.0199073 0.0140701 0.0108337 -0.0208149 -0.0276213 -0.000639248 -0.0145499 0.0378328\ninternal_weight=495.154 300.225 202.999 134.386 194.93 34.7499 160.18 120.833 68.6132 97.2259 72.6998 24.5261 28.4752 39.3471\ninternal_count=2208 1336 875 589 872 154 718 533 286 461 344 117 124 185\nis_linear=0\nshrinkage=0.05\n\n\nTree=25\nnum_leaves=12\nnum_cat=0\nsplit_feature=3 3 5 10 0 10 2 5 2 5 0\nsplit_gain=29.134 7.18138 8.7865 10.9901 9.32698 6.41543 6.1839 6.20764 4.14815 3.72745 3.30862\nthreshold=-0.00017642034830308578 0.0025848554044236188 0.0046481718747176997 -0.44329218871995585 0.43767513358706939 1.1798549531067553 0.0095099159641505188 0.0051186193407131196 0.0018406500132228667 0.0049465441776092864 0.41409425764356034\ndecision_type=2 2 2 2 2 2 2 2 2 2 2\nleft_child=5 2 4 -4 -2 6 7 -1 9 -3 -10\nright_child=1 8 3 -5 -6 -7 -8 -9 10 -11 -12\nleaf_value=-0.02110174637013661 0.028290721598097895 -0.010517828934069738 0.03151861989110942 -0.0074250527468707585 -0.029852469960534436 0.033607821454424057 0.026416713215449885 -0.0031080570538269698 0.05762850756888948 0.029527966859599721 0.026017694888840273\nleaf_weight=154.92477977275848 60.54569086432457 10.85395184159279 21.956257566809654 103.58421516418457 7.7841350436210623 7.3318080157041541 9.1423387825489026 69.405261278152466 13.415598705410956 12.506191194057463 21.614686518907547\nleaf_count=703 267 48 93 435 33 32 39 318 69 63 108\ninternal_value=-5.99585e-06 0.0118688 0.00723895 -0.000614044 0.021667 -0.0124457 -0.013892 -0.0155347 0.0272409 0.0109213 0.0381237\ninternal_weight=493.065 252.261 193.87 125.54 68.3298 240.804 233.472 224.33 58.3904 23.3601 35.0303\ninternal_count=2208 1116 828 528 300 1092 1060 1021 288 111 177\nis_linear=0\nshrinkage=0.05\n\n\nTree=26\nnum_leaves=14\nnum_cat=0\nsplit_feature=3 3 8 8 4 8 8 3 7 3 6 10 11\nsplit_gain=26.6485 6.08987 5.11647 5.66399 4.1102 11.6232 6.99096 4.07128 5.97841 7.94209 5.36984 3.81213 3.50596\nthreshold=0.00062224214815025417 -0.0026618744530339891 0.0042212939919626232 0.0034937361716284913 -0.7342322280228385 0.0030484047879177109 0.003083998315684346 0.0026106353181044521 0.0055023598750828526 0.00092428584363583031 -0.00021193043635947537 0.51912561206582708 -0.0013696481019904725\ndecision_type=2 2 2 2 2 2 2 2 2 2 2 2 2\nleft_child=1 2 3 -1 6 -6 -3 8 10 -10 -2 12 -9\nright_child=7 4 -4 -5 5 -7 -8 11 9 -11 -12 -13 -14\nleaf_value=-0.0095258283463775795 0.0079195580341740717 -0.039973403576735463 0.00074657195591304514 -0.053152445475617371 0.033087884653739637 -0.013162451972797654 0.010080057747458649 0.035243795437450924 -0.033355055822424276 0.0092387363220954154 0.04466271083784077 0.057249555998544012 0.008010358826680641\nleaf_weight=11.918848484754564 19.947834819555283 7.8644338548183432 12.749552965164183 19.797253757715225 14.67992953956127 182.01351815462112 61.754141017794609 22.523026987910267 12.918896511197088 71.597118690609932 19.827392786741257 8.5379262417554838 24.864526093006138\nleaf_count=56 87 35 58 120 63 786 272 112 54 310 87 44 124\ninternal_value=-4.78091e-06 -0.00887512 -0.0260041 -0.0367576 -0.00601512 -0.00971063 0.00442579 0.0152918 0.0102508 0.00272796 0.0262355 0.0264953 0.0209543\ninternal_weight=490.994 310.778 44.4657 31.7161 266.312 196.693 69.6186 180.217 124.291 84.516 39.7752 55.9255 47.3876\ninternal_count=2208 1390 234 176 1156 849 307 818 538 364 174 280 236\nis_linear=0\nshrinkage=0.05\n\n\nTree=27\nnum_leaves=13\nnum_cat=0\nsplit_feature=3 3 7 5 5 8 9 8 9 5 6 5\nsplit_gain=24.5331 6.10169 8.96015 5.87991 9.27831 7.9457 5.06178 4.22808 6.45911 4.52502 3.48679 3.30847\nthreshold=-0.00017642034830308578 0.001681884443635251 -0.0041117113595469093 0.0038325019452774621 0.0043068360956042074 0.0040476061946754403 1.0604705933784679 0.0044215168135984442 0.92463693137447278 0.0049354062819150883 -0.00028514283458325179 0.004577366797927424\ndecision_type=2 2 2 2 2 2 2 2 2 2 2 2\nleft_child=3 2 11 -1 10 -6 -4 9 -9 -3 -5 -2\nright_child=1 7 6 4 5 -7 -8 8 -10 -11 -12 -13\nleaf_value=-0.076833471066674056 0.056309347165205775 0.014910724051090465 0.0008200922219719801 0.052900923809933088 -0.020667945196923197 -0.0011177854486073579 -0.039337099962572682 -0.035981466393341065 0.023776257968036771 0.03783861535289617 0.0054270992197968321 0.018574001372442337\nleaf_weight=3.3911319375038138 7.9568108171224621 51.250537440180779 105.11775633692741 7.004341483116149 135.50703227519989 84.307497039437294 8.4802955389022809 7.8967635631561306 10.58090704679489 37.095467880368233 8.6370232701301557 21.514337301254272\nleaf_count=15 38 236 440 30 635 375 35 36 53 187 37 91\ninternal_value=-5.12492e-06 0.0109468 0.00419564 -0.0114635 -0.0105221 -0.0131697 -0.00217771 0.0199886 -0.00176228 0.0245379 0.0266863 0.028762\ninternal_weight=488.74 249.893 143.069 238.847 235.456 219.815 113.598 106.824 18.4777 88.346 15.6414 29.4711\ninternal_count=2208 1116 604 1092 1077 1010 475 512 89 423 67 129\nis_linear=0\nshrinkage=0.05\n\n\nTree=28\nnum_leaves=14\nnum_cat=0\nsplit_feature=3 8 8 12 5 4 8 5 11 11 7 3 8\nsplit_gain=22.4998 5.59411 10.005 7.56383 5.28451 10.6818 5.6047 5.08734 6.69643 8.62348 7.83824 5.28605 2.27401\nthreshold=9.4704196739290298e-05 0.0044215168135984442 0.0047574675592840614 0.031530903474262913 0.0049391776034567129 -0.10368621160902304 0.0039450532613444179 0.0057453461678276044 -0.032305345626458641 -0.045539279091550637 -0.010172566722671415 -0.0013644334042441728 0.0050325468661893222\ndecision_type=2 2 2 2 2 2 2 2 2 2 2 2 2\nleft_child=7 4 3 -3 5 -2 -6 8 9 -1 -10 -9 -4\nright_child=1 2 12 -5 6 -7 -8 11 10 -11 -12 -13 -14\nleaf_value=0.0017172951369276144 0.043345516847084563 -0.041670764242456304 0.010196412874597414 0.014200581886440498 0.0089333905739345347 0.0021095513083729347 0.038145724201493536 0.045755524369383758 0.0096750526018076072 -0.034633188013916107 -0.013497071925903055 -0.012603345523023168 0.05015761142176664\nleaf_weight=23.21917998790741 18.751315027475357 17.988372102379802 7.6379460692405683 9.1333109587430936 27.520763784646988 96.663450255990028 40.705042779445648 8.0896411091089231 53.59197635948658 54.8747818171978 114.39149263501167 7.4570331424474707 6.6679943948984146\nleaf_count=113 87 75 35 43 128 427 191 34 246 267 501 31 30\ninternal_value=-4.47675e-06 0.0115863 -0.0050102 -0.0228559 0.0153304 0.00880912 0.0263621 -0.00997575 -0.0117283 -0.0238253 -0.00610444 0.0177634 0.0288223\ninternal_weight=486.692 225.068 41.4276 27.1217 183.641 115.415 68.2258 261.624 246.077 78.094 167.983 15.5467 14.3059\ninternal_count=2208 1016 183 118 833 514 319 1192 1127 380 747 65 65\nis_linear=0\nshrinkage=0.05\n\n\nTree=29\nnum_leaves=10\nnum_cat=0\nsplit_feature=3 5 5 8 6 8 5 3 3\nsplit_gain=20.6499 5.65866 11.1957 5.88534 5.03712 3.61317 8.03957 4.33699 1.39419\nthreshold=0.00062224214815025417 0.0038325019452774621 0.0043068360956042074 0.0047732211158314532 -0.00028514283458325179 0.0028088863141241221 0.0043169615054867794 0.0026106353181044521 0.0014059941708496624\ndecision_type=2 2 2 2 2 2 2 2 2\nleft_child=1 -1 4 -4 -3 -2 8 -8 -7\nright_child=5 2 3 -5 -6 6 7 -9 -10\nleaf_value=-0.065795694100528809 -0.01955915557082695 0.052764449565599759 -0.011684157789954696 0.018694111047688301 0.0061225128285987843 0.034904229289084703 0.0058519946678393083 0.023505555346091795 0.066309791200138329\nleaf_weight=4.1547476798295966 7.8577454090118399 10.074145480990412 262.71653047204018 16.973669603466988 13.607079580426214 6.8120626509189588 102.6568968296051 52.625889718532562 7.3432471454143524\nleaf_count=19 36 44 1199 70 58 30 445 272 35\ninternal_value=-4.23967e-06 -0.00783937 -0.00704565 -0.00984058 0.0259643 0.0135861 0.0151232 0.0118348 0.0511963\ninternal_weight=484.822 307.526 303.371 279.69 23.6812 177.296 169.438 155.283 14.1553\ninternal_count=2208 1390 1371 1269 102 818 782 717 65\nis_linear=0\nshrinkage=0.05\n\n\nTree=30\nnum_leaves=13\nnum_cat=0\nsplit_feature=3 3 2 17 2 5 11 7 11 5 5 11\nsplit_gain=19.1511 6.56397 9.96574 14.0647 8.65602 5.92057 5.53726 11.5083 7.62159 4.68025 6.84704 3.52252\nthreshold=-0.00076728691356919116 0.0014918272481097468 -0.0015927914813207986 1.0000000180025095e-35 -0.0039945997365976029 0.0057453461678276044 -0.023548693100362113 -0.010172566722671415 -0.045539279091550637 0.004616895735868075 0.0049354062819150883 -0.0038063441966387774\ndecision_type=2 2 2 2 2 2 2 2 2 2 2 2\nleft_child=5 2 4 -4 -2 6 8 -8 -1 11 -11 -3\nright_child=1 9 3 -5 -6 -7 7 -9 -10 10 -12 -13\nleaf_value=0.0028981616398701063 0.0034211677734831861 0.011525774172456796 -0.053343010369987044 -0.00077020577314787226 0.037900847084435627 0.022435184165646292 0.027799902569531371 -0.015859370831594711 -0.030347698062307901 -0.0073056177167786984 0.021758860864271319 0.048103872113065202\nleaf_weight=22.400850102305412 57.297711029648781 10.340234443545343 15.222450405359266 77.443063318729401 26.677542462944984 11.453749716281889 20.114803791046143 60.468360558152199 74.810742273926735 31.311919122934341 57.429199010133743 18.108603805303574\nleaf_count=110 247 48 66 328 110 48 92 270 371 139 290 89\ninternal_value=-3.44414e-06 0.00798617 0.00189915 -0.0094065 0.0143748 -0.0124083 -0.0146529 -0.00496134 -0.0226867 0.0171611 0.0115036 0.0348089\ninternal_weight=483.079 293.831 176.641 92.6655 83.9753 189.249 177.795 80.5832 97.2116 117.19 88.7411 28.4488\ninternal_count=2208 1317 751 394 357 891 843 362 481 566 429 137\nis_linear=0\nshrinkage=0.05\n\n\nTree=31\nnum_leaves=13\nnum_cat=0\nsplit_feature=3 3 2 17 2 5 12 12 5 5 11 6\nsplit_gain=17.3748 6.00046 8.99936 12.8697 7.7951 5.36567 5.49975 6.30816 4.34293 6.24847 3.32067 1.8711\nthreshold=-0.00076728691356919116 0.0014918272481097468 -0.0015927914813207986 1.0000000180025095e-35 -0.0039945997365976029 0.0057453461678276044 0.017060367583723427 0.0046325967557432355 0.004616895735868075 0.0049354062819150883 -0.0038063441966387774 0.00010846679366760538\ndecision_type=2 2 2 2 2 2 2 2 2 2 2 2\nleft_child=5 2 4 -4 -2 6 7 -1 10 -10 -3 -8\nright_child=1 8 3 -5 -6 -7 11 -9 9 -11 -12 -13\nleaf_value=-0.01027983590097099 0.0032508065855079652 0.010995473248347418 -0.051256032314611802 -0.00073177108281820074 0.035957445914310847 0.021296196059598954 -0.0029902435610429509 -0.031911610598795569 -0.0069249006726184491 0.020865600090907231 0.046692718083008761 0.03276767701356615\nleaf_weight=114.37069024145603 57.285731703042984 10.298090234398844 15.054445654153822 77.435272261500359 26.712424546480179 11.462767004966734 7.1358703821897489 47.782596230506897 31.379919126629829 56.906958639621735 17.732733339071274 7.5071877837181091\nleaf_count=558 247 48 66 328 110 48 31 221 139 290 89 33\ninternal_value=-4.17163e-06 0.00761514 0.00180431 -0.00895555 0.0136519 -0.0118547 -0.0140041 -0.0166542 0.0164319 0.010988 0.0335781 0.0153421\ninternal_weight=481.065 292.806 176.488 92.4897 83.9982 188.259 176.796 162.153 116.318 88.2869 28.0308 14.6431\ninternal_count=2208 1317 751 394 357 891 843 779 566 429 137 64\nis_linear=0\nshrinkage=0.05\n\n\nTree=32\nnum_leaves=13\nnum_cat=0\nsplit_feature=3 12 3 4 4 0 0 9 7 8 2 0\nsplit_gain=15.779 5.70451 6.50895 9.87638 7.99191 5.51791 9.791 7.42951 9.77804 5.93718 3.56997 1.73917\nthreshold=0.00044565024797560226 0.0067264878178642249 0.00092428584363583031 0.5262191032774467 0.10964853914538472 0.19793471329213916 0.10937204253744605 0.836270555258816 0.0089516944121624826 0.0025171337111089798 0.0083671333879253868 0.14680412582895211\ndecision_type=2 2 2 2 2 2 2 2 2 2 2 2\nleft_child=5 -2 3 -3 -4 6 9 10 -9 -1 -7 -8\nright_child=1 2 4 -5 -6 7 11 8 -10 -11 -12 -13\nleaf_value=-0.072880982862204943 0.046456013722771285 0.0136120033667645 -0.018682254363326375 -0.041716046650837953 0.017852716880668761 0.010243818256382521 -0.066825662415410075 -0.049295176158918486 0.026539154496010187 -0.006312703468374932 0.055744598299043449 -0.033889413584215072\nleaf_weight=3.3979131728410712 10.833197697997091 18.06148836016655 16.936388298869133 14.574283838272093 128.81176508963108 8.0753644257783908 6.5464785099029568 8.6405428797006625 8.3666486442089063 235.28744374215603 9.247530668973921 10.336603149771689\nleaf_count=15 52 77 74 61 617 36 30 38 36 1087 39 46\ninternal_value=-4.2148e-06 0.0112271 0.00908771 -0.0110961 0.0136072 -0.00733494 -0.00986318 0.0114864 -0.0119887 -0.00726037 0.0345336 -0.0466606\ninternal_weight=479.116 189.217 178.384 32.6358 145.748 289.899 255.568 34.3301 17.0072 238.685 17.3229 16.8831\ninternal_count=2208 881 829 138 691 1327 1178 149 74 1102 75 76\nis_linear=0\nshrinkage=0.05\n\n\nTree=33\nnum_leaves=13\nnum_cat=0\nsplit_feature=3 2 3 2 17 2 5 11 10 2 0 5\nsplit_gain=14.855 6.6756 5.09748 7.78305 16.973 7.28779 5.05143 8.4329 5.71163 4.16925 3.43266 3.37726\nthreshold=-0.00076728691356919116 0.0094314509587082335 0.0025848554044236188 -0.001558501154243219 1.0000000180025095e-35 -0.0039945997365976029 0.0051513588745114155 -0.045539279091550637 0.13007025822132193 0.0018406500132228667 0.41409425764356034 0.0051186193407131196\ndecision_type=2 2 2 2 2 2 2 2 2 2 2 2\nleft_child=1 6 3 5 -5 -2 7 -1 -8 11 -11 -4\nright_child=2 -3 9 4 -6 -7 8 -9 -10 10 -12 -13\nleaf_value=0.021168330206328786 0.0049681779349013307 0.037419893182048629 -0.0088269224893865496 -0.054593869953630469 0.0022182722536590207 0.033276237350904368 0.0099309866833290246 -0.022735966176679653 -0.02533343442256919 0.053368289941666404 0.019655054645305536 0.03392524542622307\nleaf_weight=12.118656307458876 69.870332852005959 6.8557341843843451 15.273838102817537 14.791893556714056 118.2013273537159 33.703243762254715 39.45941649377346 112.17911896109581 16.194712460041046 12.138385102152823 19.976049050688744 6.6222740560770026\nleaf_count=58 305 29 72 66 516 142 186 539 79 69 108 39\ninternal_value=-4.70682e-06 -0.011005 0.00706723 0.00390292 -0.00410054 0.0141797 -0.0128499 -0.0184554 -0.000330555 0.020927 0.0323977 0.00410307\ninternal_weight=477.385 186.808 290.577 236.567 132.993 103.574 179.952 124.298 55.6541 54.0105 32.1144 21.8961\ninternal_count=2208 891 1317 1029 582 447 862 597 265 288 177 111\nis_linear=0\nshrinkage=0.05\n\n\nTree=34\nnum_leaves=13\nnum_cat=0\nsplit_feature=3 2 5 3 2 10 5 11 11 10 11 6\nsplit_gain=13.4697 6.01879 4.73178 5.3943 5.74078 5.23462 4.61506 7.67006 5.57471 4.21081 3.66949 1.8646\nthreshold=-0.00076728691356919116 0.0094314509587082335 0.0043169615054867794 0.0026106353181044521 -0.0015927914813207986 -0.13817409213881474 0.0051513588745114155 -0.045539279091550637 -0.039350447201309195 0.51912561206582708 -0.006044137278826355 -0.00033599545773543843\ndecision_type=2 2 2 2 2 2 2 2 2 2 2 2\nleft_child=1 6 5 4 -4 10 7 -1 -8 -5 -2 -7\nright_child=2 -3 3 9 -6 11 8 -9 -10 -11 -12 -13\nleaf_value=0.019951855046392852 0.02573700431678826 0.035320231887386873 0.010420169294286566 0.013025513823522003 -0.0063426078499894747 0.064960865939948417 -0.022165037219052032 -0.021792513570312328 0.011149884985344694 0.053107332542044465 -0.02354629313377312 0.030451999885514777\nleaf_weight=12.212173387408255 8.641295522451399 6.8989561647176734 90.393716156482697 42.709606602787971 117.4279321283102 6.7813258916139647 19.146748259663582 111.20908898115158 36.484432935714722 7.7400377839803687 6.70972712337971 9.2589150071144068\nleaf_count=58 39 29 385 229 514 31 97 539 168 44 31 44\ninternal_value=-5.08295e-06 -0.010507 0.0067367 0.00450877 0.000948498 0.025067 -0.0122727 -0.017662 -0.00031621 0.0191749 0.00419593 0.0450413\ninternal_weight=475.614 185.951 289.663 258.271 207.822 31.3913 179.052 123.421 55.6312 50.4496 15.351 16.0402\ninternal_count=2208 891 1317 1172 899 145 862 597 265 273 70 75\nis_linear=0\nshrinkage=0.05\n\n\nTree=35\nnum_leaves=12\nnum_cat=0\nsplit_feature=3 12 3 4 4 3 2 8 4 3 6\nsplit_gain=12.3291 5.22776 5.59101 9.70941 6.39755 4.88729 4.41895 5.08707 4.40439 5.87011 4.96269\nthreshold=0.00044565024797560226 0.0067264878178642249 0.00095429113132103436 0.5262191032774467 0.10964853914538472 -0.0026618744530339891 0.00090013829260338085 0.0042212939919626232 -1.0610464276297884 -0.0018489181710580358 -0.0051517485065694082\ndecision_type=2 2 2 2 2 2 2 2 2 2 2\nleft_child=5 -2 3 -3 -4 6 7 -1 9 -7 -10\nright_child=1 2 4 -5 -6 8 -8 -9 10 -11 -12\nleaf_value=-0.04315962209888409 0.044206961573103581 0.012697963211161565 -0.017154207061611495 -0.040879397102528914 0.016185858888621413 -0.010546464442183035 0.0055371801259060018 0.003840665098963747 -0.025798826036588507 0.054136199086378234 -0.0028229195195677154\nleaf_weight=23.69835035502911 10.538073800504206 19.905060887336731 16.255553975701332 14.701708942651747 125.28789158165455 6.6915630996227264 10.6553538441658 7.6045428812503806 26.550173044204712 7.3717595785856229 204.73610053956509\nleaf_count=145 52 85 71 62 611 31 52 37 118 31 913\ninternal_value=-4.98084e-06 0.00999877 0.00795229 -0.0100629 0.0123569 -0.00650527 -0.0222746 -0.0317416 -0.00380848 0.0233591 -0.00546041\ninternal_weight=473.996 186.688 176.15 34.6068 141.543 287.308 41.9582 31.3029 245.35 14.0633 231.286\ninternal_count=2208 881 829 147 682 1327 234 182 1093 62 1031\nis_linear=0\nshrinkage=0.05\n\n\nTree=36\nnum_leaves=12\nnum_cat=0\nsplit_feature=3 2 5 3 5 4 12 10 11 7 4\nsplit_gain=11.3501 5.38831 4.40012 4.32576 4.26404 5.13728 4.9143 4.79902 3.33956 2.4631 1.77189\nthreshold=-0.00076728691356919116 0.0094314509587082335 0.0057453461678276044 -0.001503574456669241 0.0043169615054867794 1.0748138426126064 0.041308999324773839 -0.13817409213881474 -0.006044137278826355 0.017341402666611442 0.39471615842449548\ndecision_type=2 2 2 2 2 2 2 2 2 2 2\nleft_child=1 2 3 -1 7 6 -6 8 -2 -7 -9\nright_child=4 -3 -4 -5 5 9 -8 10 -10 -11 -12\nleaf_value=-0.019542765458480882 0.024398020427843687 0.033557252323425692 0.018951492028971971 -0.0027887058959607772 -0.0014184664040703674 0.053302718487196844 0.016935223352261244 0.062136426263481218 -0.022697999168659673 0.015846664385030546 0.028336585260174792\nleaf_weight=105.52788591384888 8.5768845677375776 6.9308280497789374 11.200520962476729 60.680308505892754 192.37322543561459 6.7198660969734219 45.003746196627617 6.8633006364107123 6.7080114632844952 12.654553323984144 8.9128391742706281\nleaf_count=544 39 29 47 271 850 31 223 33 31 68 42\ninternal_value=-5.64656e-06 -0.00969233 -0.011382 -0.0134261 0.00619853 0.00408174 0.00206117 0.023696 0.00372921 0.028838 0.043041\ninternal_weight=472.152 184.34 177.409 166.208 287.812 256.751 237.377 31.061 15.2849 19.3744 15.7761\ninternal_count=2208 891 862 815 1317 1172 1073 145 70 99 75\nis_linear=0\nshrinkage=0.05\n\n\nTree=37\nnum_leaves=9\nnum_cat=0\nsplit_feature=3 8 4 6 4 7 5 10\nsplit_gain=10.3617 8.32298 5.56941 5.03649 4.95014 4.2322 5.97957 3.82177\nthreshold=0.0013220282982281271 0.0049773325310931713 0.10964853914538472 -0.0094497240167985535 0.53302066298414441 0.011345410160016224 0.004616895735868075 -0.26575512426720366\ndecision_type=2 2 2 2 2 2 2 2\nleft_child=1 3 -2 -1 -5 7 -7 -4\nright_child=2 -3 5 4 -6 6 -8 -9\nleaf_value=-0.057415640399642011 -0.021363393224190404 0.047962460048409622 0.008955356727185497 -0.0026677748261137064 -0.022008900020546257 0.037501973024191802 0.0047184670995444192 0.052217452038754747\nleaf_weight=4.6098212897777548 10.971255227923391 7.4363019019365302 8.2291270792484301 300.45441348105669 37.175421535968781 17.295387491583824 71.040615230798721 13.44638369977474\nleaf_count=21 49 31 38 1395 159 89 362 64\ninternal_value=-5.28191e-06 -0.00436904 0.0126073 -0.00550611 -0.00479737 0.0159951 0.0111372 0.035793\ninternal_weight=470.659 349.676 120.983 342.24 337.63 110.012 88.336 21.6755\ninternal_count=2208 1606 602 1575 1554 553 451 102\nis_linear=0\nshrinkage=0.05\n\n\nTree=38\nnum_leaves=10\nnum_cat=0\nsplit_feature=3 2 12 2 3 8 8 3 8\nsplit_gain=10.0126 7.38924 4.80879 9.39431 8.2892 3.89679 7.30574 4.01201 3.02865\nthreshold=-0.00076728691356919116 0.0095099159641505188 0.0047444903665464508 0.00010263359906026449 -0.0019739539218808859 0.0050325468661893222 0.0045677442302309015 0.0015615639892900661 0.0047574675592840614\ndecision_type=2 2 2 2 2 2 2 2 2\nleft_child=1 2 3 -1 -4 6 7 -2 -8\nright_child=5 -3 4 -5 -6 -7 8 -9 -10\nleaf_value=-0.012297966464003472 0.0025479472414125684 0.044223202356773489 -0.052344110200424565 0.022828808065148785 -0.010789305885685723 0.040720960619727686 -0.033534781112272587 0.015544509178471428 0.0019781735996624718\nleaf_weight=94.5176842212677 157.54113213717937 6.2668484300374976 16.845716759562492 23.833507403731346 41.726679548621178 7.7868177294731131 16.324861302971843 95.301915466785431 9.4958826601505262\nleaf_count=474 681 26 85 116 190 36 71 485 44\ninternal_value=-3.98615e-06 -0.00913323 -0.0110232 -0.00522415 -0.0227407 0.00583433 0.00485948 0.00744663 -0.0204745\ninternal_weight=469.641 183.19 176.924 118.351 58.5724 286.451 278.664 252.843 25.8207\ninternal_count=2208 891 865 590 275 1317 1281 1166 115\nis_linear=0\nshrinkage=0.05\n\n\nTree=39\nnum_leaves=13\nnum_cat=0\nsplit_feature=3 2 12 2 3 5 4 10 12 11 10 4\nsplit_gain=9.07306 6.65905 4.40733 8.46099 7.76411 3.8204 4.50284 4.40315 4.30042 3.14446 2.38609 1.72644\nthreshold=-0.00076728691356919116 0.0095099159641505188 0.0047444903665464508 0.00010263359906026449 -0.0019739539218808859 0.0043169615054867794 1.0748138426126064 -0.13817409213881474 0.041308999324773839 -0.006044137278826355 -0.23022548612152702 0.39471615842449548\ndecision_type=2 2 2 2 2 2 2 2 2 2 2 2\nleft_child=1 2 3 -1 -4 7 8 9 -7 -2 -8 -9\nright_child=5 -3 4 -5 -6 6 10 11 -10 -11 -12 -13\nleaf_value=-0.011740269228691062 0.023218089687179151 0.04181019581612818 -0.050832629397816478 0.021499448814070447 -0.010286381463167061 -0.0015783818778446358 0.00020476736673338483 0.060025191349475787 0.015687226650891603 -0.02264332292573322 0.038704958009784553 0.026333748897030725\nleaf_weight=94.06891043484211 8.5233690887689573 6.2962996065616599 16.488442167639732 24.036427184939384 41.582230255007744 191.74019259214401 5.7881534993648556 6.7387142851948729 44.42026586830616 6.6565659046173122 13.206976190209387 8.7260685563087446\nleaf_count=474 39 26 85 116 190 850 31 33 223 31 68 42\ninternal_value=-4.809e-06 -0.00871506 -0.0105208 -0.00497543 -0.021799 0.00555634 0.00355294 0.0222372 0.00166917 0.00310736 0.0269733 0.0410147\ninternal_weight=468.273 182.472 176.176 118.105 58.0707 285.8 255.156 30.6447 236.16 15.1799 18.9951 15.4648\ninternal_count=2208 891 865 590 275 1317 1172 145 1073 70 99 75\nis_linear=0\nshrinkage=0.05\n\n\nTree=40\nnum_leaves=12\nnum_cat=0\nsplit_feature=3 2 5 11 12 5 12 8 0 0 1\nsplit_gain=8.22161 6.00548 4.25758 7.65154 5.71635 3.66883 5.81744 7.92279 5.89731 4.98041 7.36117\nthreshold=-0.00076728691356919116 0.0095099159641505188 0.0051513588745114155 -0.045539279091550637 0.006790759831674765 0.0046419813970750828 0.041308999324773839 0.0050325468661893222 0.40334433074736797 0.43425372210157809 0.0089046625164128663\ndecision_type=2 2 2 2 2 2 2 2 2 2 2\nleft_child=1 2 3 -1 -4 9 7 -7 -8 10 -2\nright_child=5 -3 4 -5 -6 6 8 -9 -10 -11 -12\nleaf_value=0.022634121067096651 0.010099674826177529 0.039573044373637484 0.0082551463897937577 -0.019455292073908202 -0.037424069134173961 -0.0053067089370686105 0.059130513871453516 0.049751228470929693 0.0093956478251337131 -0.017110635454276223 0.047320907901036262\nleaf_weight=11.987490221858023 61.075135231018066 6.3190093487501136 46.602771908044815 108.81925883889198 8.0288583934307081 149.15203024446964 7.3021319136023513 6.8333356976509085 32.436948180198669 11.454924017190931 16.975238367915154\nleaf_count=58 276 26 228 542 37 665 40 31 165 54 86\ninternal_value=-5.04192e-06 -0.00831593 -0.0100408 -0.0152788 0.00154197 0.00529092 0.00145616 -0.00289476 0.0185345 0.0136765 0.018195\ninternal_weight=466.987 181.757 175.438 120.807 54.6316 285.23 195.724 155.985 39.7391 89.5053 78.0504\ninternal_count=2208 891 865 600 265 1317 901 696 205 416 362\nis_linear=0\nshrinkage=0.05\n\n\nTree=41\nnum_leaves=15\nnum_cat=0\nsplit_feature=11 2 17 12 2 5 5 11 5 17 1 0 3 11\nsplit_gain=7.89837 6.63907 10.7674 11.4348 5.91911 11.1892 6.46669 5.98011 5.25242 5.24488 8.53672 5.20198 4.88231 4.81816\nthreshold=-0.031324537811804935 -0.0021097637831656853 1.0000000180025095e-35 0.006790759831674765 -0.011025234832406304 0.0053650670736157561 0.0053335814572453245 -0.045539279091550637 0.004437471895651403 1.0000000180025095e-35 0.0024034930595465691 -0.53936050867385832 0.00044565024797560226 -0.038426436610600294\ndecision_type=2 2 2 2 2 2 2 2 2 2 2 2 2 2\nleft_child=4 9 3 -3 6 7 11 -6 -4 12 -11 -1 -2 -7\nright_child=1 2 8 -5 5 13 -8 -9 -10 10 -12 -13 -14 -15\nleaf_value=-0.0028924527393198833 0.010280865403230461 -0.0027071679575928868 0.021742147041971541 -0.043547421563613624 0.0039487870512469499 -0.012811977439638512 -0.027878705807596927 -0.04059507013900427 0.0011719276763525253 -0.055184778022057936 0.015770269529754466 0.050571068229308715 0.035137360782849472 0.047133875986487654\nleaf_weight=9.2169110924005526 56.392288029193878 49.020790711045265 38.774512991309166 26.353297382593155 9.2305856645107252 6.330791637301445 9.2301558107137662 41.014896094799042 155.42969129234552 6.7396775186061886 11.424786478281019 8.9853051602840441 30.407920449972153 7.1239356100559217\nleaf_count=44 242 234 181 121 46 34 43 221 739 29 58 39 145 32\ninternal_value=-4.60454e-06 0.00320745 -0.000946412 -0.0169863 -0.0132057 -0.021568 0.00621208 -0.0324119 0.00527895 0.0138757 -0.0105566 0.0234992 0.0189886 0.0189278\ninternal_weight=465.676 374.543 269.578 75.3741 91.1326 63.7002 27.4324 50.2455 194.204 104.965 18.1645 18.2022 86.8002 13.4547\ninternal_count=2208 1749 1275 355 459 333 126 267 920 474 87 83 387 66\nis_linear=0\nshrinkage=0.05\n\n\nTree=42\nnum_leaves=10\nnum_cat=0\nsplit_feature=11 5 5 2 5 2 5 12 13\nsplit_gain=7.18285 7.85965 6.67024 6.90533 5.47464 7.78944 5.95134 5.21414 3.92548\nthreshold=-0.031324537811804935 0.0038325019452774621 0.0043391066227991019 -0.0075738810701328476 0.0057210911165941061 -0.011025234832406304 0.0048954066015301041 0.0047885802730783808 -1.0000000180025095e-35\ndecision_type=2 2 2 2 2 2 2 2 2\nleft_child=4 -2 8 -4 5 6 -1 -7 -3\nright_child=1 2 3 -5 -6 7 -8 -9 -10\nleaf_value=0.040644021480316865 -0.056281732479277286 -0.0068540457521157148 0.032507030676167468 -0.0001831810204594406 0.031659814457558735 -0.019783054215948569 -0.010145475478340046 -0.060921070592343286 0.030592911315807228\nleaf_weight=8.6121391952037829 5.499060943722724 8.8710239231586439 17.044626608490944 309.27644936740398 6.4726085364818564 48.763404473662376 17.463438719511032 9.1474996730685216 33.153447106480598\nleaf_count=38 27 40 77 1448 29 263 82 47 157\ninternal_value=-6.04749e-06 0.00305308 0.0039389 0.00152432 -0.0126487 -0.0160634 0.00662908 -0.0262811 0.0226882\ninternal_weight=464.304 373.845 368.346 326.321 90.4591 83.9865 26.0756 57.9109 42.0245\ninternal_count=2208 1749 1722 1525 459 430 120 310 197\nis_linear=0\nshrinkage=0.05\n\n\nTree=43\nnum_leaves=10\nnum_cat=0\nsplit_feature=6 5 5 5 8 3 12 6 5\nsplit_gain=6.89463 6.74625 7.05256 7.67998 5.66476 4.28591 3.81651 3.54206 3.23704\nthreshold=-0.0037580001381142809 0.0038325019452774621 0.0043068360956042074 0.0049391776034567129 0.0034556528703273445 -0.0017148733637501821 0.023556522987495335 -0.0012632700373231829 0.0057929595108675612\ndecision_type=2 2 2 2 2 2 2 2 2\nleft_child=4 -2 7 -4 5 -1 8 -3 -6\nright_child=1 2 3 -5 6 -7 -8 -9 -10\nleaf_value=-0.012117029954787728 -0.053271278811872158 0.054758008468716958 -0.0056442046445712374 0.009550901449377848 -0.027885502152606712 0.035702883572216515 0.012920765553735714 0.016548100179064065 0.0081091320053401587\nleaf_weight=9.4161450564861315 5.2650783360004416 7.6579149961471549 178.40781839191914 155.75165580958128 53.283779293298721 9.3266825228929502 8.0822561830282194 29.161553658545017 7.0755759775638571\nleaf_count=47 26 34 837 760 256 44 37 137 30\ninternal_value=-6.741e-06 0.00292901 0.00372662 0.00143823 -0.0126759 0.0116788 -0.0193455 0.0244952 -0.0236661\ninternal_weight=463.428 376.244 370.979 334.159 87.1844 18.7428 68.4416 36.8195 60.3594\ninternal_count=2208 1794 1768 1597 414 91 323 171 286\nis_linear=0\nshrinkage=0.05\n\n\nTree=44\nnum_leaves=10\nnum_cat=0\nsplit_feature=3 8 11 0 6 4 10 7 0\nsplit_gain=6.6484 6.67769 4.9209 7.78607 5.99669 4.82551 4.15351 5.12673 1.99617\nthreshold=0.0013220282982281271 0.0049773325310931713 -0.003100772174357946 0.20366889173534589 0.0044735333957369736 0.10964853914538472 0.56560199859852889 0.0073819302429252174 0.23159390193966126\ndecision_type=2 2 2 2 2 2 2 2 2\nleft_child=1 2 3 -1 -4 -2 7 -7 -8\nright_child=5 -3 4 -5 -6 6 8 -9 -10\nleaf_value=-0.0053264860866561632 -0.021444699360044936 0.043389356933713347 -0.041440762711016127 0.021389216971362382 0.0065174587980116024 0.04382965547382163 0.019164664046751649 0.0059507069872691085 0.059741981642454436\nleaf_weight=278.64585114270449 10.908241197466849 7.4254321306943885 18.379365593194965 30.231407701969147 10.100133553147314 9.9826967418193799 5.6480266153812391 84.929471410810947 6.5409624204039574\nleaf_count=1324 49 31 79 129 43 48 28 439 38\ninternal_value=-6.92086e-06 -0.003513 -0.00454535 -0.00271168 -0.0244326 0.0102366 0.0134634 0.00993475 0.0409396\ninternal_weight=462.792 344.782 337.357 308.877 28.4795 118.009 107.101 94.9122 12.189\ninternal_count=2208 1606 1575 1453 122 602 553 487 66\nis_linear=0\nshrinkage=0.05\n\n\nTree=45\nnum_leaves=10\nnum_cat=0\nsplit_feature=3 4 5 12 8 2 5 10 4\nsplit_gain=6.40191 8.37302 7.73787 5.90246 12.3301 11.8623 4.35937 4.81429 4.77474\nthreshold=-0.001503574456669241 -1.0610464276297884 0.0057453461678276044 0.0046325967557432355 0.0034910843612311671 0.0076436091861328279 0.0043169615054867794 0.064370188259897612 1.0748138426126064\ndecision_type=2 2 2 2 2 2 2 2 2\nleft_child=2 -2 3 4 -1 -5 7 -3 -8\nright_child=1 6 -4 5 -6 -7 8 -9 -10\nleaf_value=0.018864738098820021 0.062986564653275831 0.0051091527985755707 0.03789648715949967 -0.050841137152316057 -0.022769831945233507 0.018693143101942426 -0.0011412520627084336 0.043647116216368603 0.02501520238305957\nleaf_weight=29.522254079580307 5.7875991761684409 22.433662921190262 7.7455498129129401 22.798726260662082 44.71994936466217 8.3909616619348508 289.19166135042906 12.686902463436125 18.567673347890377\nleaf_count=146 24 105 33 121 257 37 1323 63 99\ninternal_value=-5.90782e-06 0.003348 -0.0103383 -0.0138819 -0.00621393 -0.0321343 0.00234134 0.0190306 0.000436814\ninternal_weight=461.845 348.667 113.177 105.432 74.2422 31.1897 342.88 35.1206 307.759\ninternal_count=2208 1614 594 561 403 158 1590 168 1422\nis_linear=0\nshrinkage=0.05\n\n\nTree=46\nnum_leaves=11\nnum_cat=0\nsplit_feature=6 5 5 5 8 3 8 8 11 6\nsplit_gain=6.27113 6.25527 5.98462 6.94266 4.95712 3.91395 3.40011 4.74417 4.55397 3.05685\nthreshold=-0.0037580001381142809 0.0038325019452774621 0.0043068360956042074 0.0049515837071486537 0.0034556528703273445 -0.0017148733637501821 0.0041130681087910787 0.0038828521984044339 -0.012581772502918863 -0.0012632700373231829\ndecision_type=2 2 2 2 2 2 2 2 2 2\nleft_child=4 -2 9 -4 5 -1 7 -6 -8 -3\nright_child=1 2 3 -5 6 -7 8 -9 -10 -11\nleaf_value=-0.012123403096975762 -0.051636237698697907 0.05104883219421559 -0.0051747238014719678 0.009329566708276775 -0.01496161050957266 0.03358670188375925 0.0038493583672384716 -0.053383084744927214 -0.037883307598468981 0.01537535906573668\nleaf_weight=9.4105182737112063 5.2044776529073706 7.5753278583288184 180.54037690907717 151.93516410887241 21.141186617314816 9.3221665322780591 24.776216626167297 12.959406308829783 8.8798785358667356 28.971870720386505\nleaf_count=47 26 34 851 746 106 44 111 66 40 137\ninternal_value=-7.52094e-06 0.00279688 0.00356457 0.00145347 -0.0121418 0.0106239 -0.0184358 -0.0295631 -0.00716146 0.0227696\ninternal_weight=460.717 374.227 369.023 332.476 86.4894 18.7327 67.7567 34.1006 33.6561 36.5472\ninternal_count=2208 1794 1768 1597 414 91 323 172 151 171\nis_linear=0\nshrinkage=0.05\n\n\nTree=47\nnum_leaves=15\nnum_cat=0\nsplit_feature=11 2 17 12 2 5 11 5 2 2 7 0 11 5\nsplit_gain=5.98205 5.95414 8.85462 10.5659 4.86674 9.64272 5.67655 5.41471 4.78505 8.10083 4.81932 4.6124 4.14979 4.05303\nthreshold=-0.031324537811804935 -0.0021097637831656853 1.0000000180025095e-35 0.006790759831674765 -0.011025234832406304 0.0053650670736157561 -0.045539279091550637 0.0053335814572453245 -0.0042248088134145814 -0.0049304888845418384 -0.011146154179126675 -0.53936050867385832 -0.038426436610600294 0.004437471895651403\ndecision_type=2 2 2 2 2 2 2 2 2 2 2 2 2 2\nleft_child=4 8 3 -3 7 6 -6 11 9 -2 -10 -1 -7 -4\nright_child=1 2 13 -5 5 12 -8 -9 10 -11 -12 -13 -14 -15\nleaf_value=-0.0033223398502011644 0.013031947522006662 -0.0020570245550286469 0.019079560706556128 -0.041612681187606512 0.0059534806656185183 -0.011514491409120059 -0.037912979845250272 -0.025594653451560829 0.060580100645443946 -0.032395842320234722 0.017662037042001928 0.046934791628363198 0.044614565318189643 0.00088484250626307383\nleaf_weight=9.1994078755378741 51.963053777813911 48.53715043514967 38.177959382534027 25.88597771525383 9.0684466511011106 6.1728029623627663 39.49202761054039 9.098297640681265 8.2335685044527036 12.098414048552511 31.819425135850906 9.0629206001758593 7.0584365427494031 154.35702861845493\nleaf_count=44 238 234 181 121 46 34 221 43 37 55 144 39 32 739\ninternal_value=-7.61198e-06 0.00278652 -0.00116882 -0.0158153 -0.0116374 -0.019411 -0.0297211 0.00591854 0.0129283 0.00445262 0.0264846 0.0216184 0.0184285 0.00449269\ninternal_weight=460.225 371.073 266.958 74.4231 89.1523 61.7917 48.5605 27.3606 104.114 64.0615 40.053 18.2623 13.2312 192.535\ninternal_count=2208 1749 1275 355 459 333 267 126 474 293 181 83 66 920\nis_linear=0\nshrinkage=0.05\n\n\nTree=48\nnum_leaves=8\nnum_cat=0\nsplit_feature=8 3 9 8 6 1 5\nsplit_gain=5.72145 5.65842 5.61734 5.04652 4.91997 4.3546 3.61918\nthreshold=0.0052023451567014423 0.0014918272481097468 1.0604705933784679 0.0044215168135984442 -0.0037580001381142809 0.0118560072165822 0.0049354062819150883\ndecision_type=2 2 2 2 2 2 2\nleft_child=1 2 4 6 -1 -5 -3\nright_child=-2 3 -4 5 -6 -7 -8\nleaf_value=-0.014045379870486078 0.045213700328398589 0.0059276042956784378 -0.04770794006619708 -0.047174931982419385 0.00037623656849982041 0.004316181584152967 0.026530688338091048\nleaf_weight=76.313351720571518 6.8889194801449767 52.713462442159653 7.1319110393524161 6.6025917083025005 262.78252676874399 10.859234064817427 35.784929364919662\nleaf_count=368 32 263 30 29 1225 59 202\ninternal_value=-9.80205e-06 -0.000698766 -0.00379297 0.00941162 -0.00286934 -0.0151534 0.0142586\ninternal_weight=459.077 452.188 346.228 105.96 339.096 17.4618 88.4984\ninternal_count=2208 2176 1623 553 1593 88 465\nis_linear=0\nshrinkage=0.05\n\n\nTree=49\nnum_leaves=12\nnum_cat=0\nsplit_feature=3 10 5 11 12 12 5 3 2 11 10\nsplit_gain=5.38404 5.49604 5.34521 4.97226 4.6028 7.11927 4.42971 4.07817 3.95612 2.44835 0.725133\nthreshold=-0.0026618744530339891 0.96361387932742282 0.0038325019452774621 -0.01975691475847496 0.0011597937283895912 0.0043431531493953743 0.0042521584261499901 -0.0033378893092697961 -0.0014505206399892388 -0.0084393424709561776 -0.18922706312400892\ndecision_type=2 2 2 2 2 2 2 2 2 2 2\nleft_child=4 2 -2 -3 8 7 -4 -6 10 -5 -1\nright_child=1 3 6 9 5 -7 -8 -9 -10 -11 -12\nleaf_value=-0.038993555916998102 -0.050046604194354263 -0.0071728931554550721 0.020223010187509376 0.065026268392099268 -0.0081048975679134157 -0.041394111213511157 -0.0004636756084733059 0.046582244962995595 -0.0037540510906803231 0.022643432578399843 -0.064137893728388948\nleaf_weight=4.9807287529110917 5.1958006769418708 7.1091901212930706 27.850150302052498 7.0021053105592737 6.7635586410760888 7.4220638051629058 365.47855514287949 6.8735846653580674 6.071466550230979 6.6375536099076244 6.7575238198041925\nleaf_count=30 26 32 134 31 42 44 1717 40 34 34 44\ninternal_value=-8.60088e-06 0.00164175 0.000335533 0.0267304 -0.0178107 -0.00198776 0.00100107 0.0194593 -0.0365206 0.0444012 -0.0534687\ninternal_weight=458.142 419.273 398.525 20.7488 38.8689 21.0592 393.329 13.6371 17.8097 13.6397 11.7383\ninternal_count=2208 1974 1877 97 234 126 1851 82 108 65 74\nis_linear=0\nshrinkage=0.05\n\n\nTree=50\nnum_leaves=8\nnum_cat=0\nsplit_feature=8 3 9 8 6 1 5\nsplit_gain=5.18658 5.06221 5.11644 4.59869 4.30986 3.93637 3.43602\nthreshold=0.0052023451567014423 0.0014918272481097468 1.0604705933784679 0.0044215168135984442 -0.0037580001381142809 0.0118560072165822 0.0051294770029510226\ndecision_type=2 2 2 2 2 2 2\nleft_child=1 2 4 6 -1 -5 -3\nright_child=-2 3 -4 5 -6 -7 -8\nleaf_value=-0.013210562756932826 0.043269754500335052 0.0082456184203230989 -0.045669642063291153 -0.044725356217510497 0.00032203222358092275 0.0041164208734396027 0.031879301081180977\nleaf_weight=75.826971285045147 6.8191755041480056 67.946887820959091 7.0758877396583548 6.6606589555740383 262.56694404780865 10.837447471916674 19.878499440848827\nleaf_count=368 32 343 30 29 1225 59 122\ninternal_value=-9.97182e-06 -0.000664667 -0.00359023 0.00893142 -0.00271034 -0.0144752 0.0135949\ninternal_weight=457.612 450.793 345.47 105.323 338.394 17.4981 87.8254\ninternal_count=2208 2176 1623 553 1593 88 465\nis_linear=0\nshrinkage=0.05\n\n\nTree=51\nnum_leaves=13\nnum_cat=0\nsplit_feature=11 11 3 4 20 2 7 12 4 12 4 4\nsplit_gain=4.87795 7.91994 8.45653 7.93435 4.6565 7.19639 8.10127 5.64209 5.0145 4.39445 3.95211 2.64702\nthreshold=-0.038426436610600294 -0.044978102193247209 -0.002892348041527592 -0.65470890395385617 1.0000000180025095e-35 0.00010263359906026449 -0.011803190246305771 0.0046325967557432355 -1.0610464276297884 0.00066309691262356207 -0.72915025062302952 -0.89689343755655648\ndecision_type=2 2 2 2 2 2 2 2 2 2 2 2\nleft_child=1 2 -1 11 8 6 -6 -7 -2 -10 -4 -3\nright_child=4 3 10 -5 5 7 -8 -9 9 -11 -12 -13\nleaf_value=-0.038290053148024757 0.043662963276618533 -0.024932675067835024 0.047822116786509238 0.010186827184486054 0.002849164863850956 0.023292859785160148 -0.044774823661566217 -0.0027475931271576494 -0.027075663499827415 0.0073868411835849822 -0.00065148573148478685 -0.065690329693312885\nleaf_weight=7.6282776221632984 9.0662936270236951 5.9518413022160574 8.98580197989941 7.1057249605655661 16.04628086835146 24.126615449786186 20.134922921657562 150.90270805358887 9.7601850777864438 177.03213600814342 7.9032892584800694 12.046402923762798\nleaf_count=48 41 34 42 35 95 118 96 710 48 839 36 66\ninternal_value=-8.78744e-06 -0.0148093 0.00540368 -0.03455 0.00179538 -0.00335429 -0.0236537 0.000841908 0.0073487 0.00558612 0.0251388 -0.0522122\ninternal_weight=456.69 49.6213 24.5174 25.104 407.069 211.211 36.1812 175.029 195.859 186.792 16.8891 17.9982\ninternal_count=2208 261 126 135 1947 1019 191 828 928 887 78 100\nis_linear=0\nshrinkage=0.05\n\n\nTree=52\nnum_leaves=8\nnum_cat=0\nsplit_feature=8 3 8 4 8 12 8\nsplit_gain=4.77983 4.72069 7.89119 6.20363 5.09026 6.49844 3.38735\nthreshold=0.0052023451567014423 -0.001503574456669241 0.0045336049229259172 -1.0610464276297884 0.0046896883337565398 0.0046325967557432355 0.0047574675592840614\ndecision_type=2 2 2 2 2 2 2\nleft_child=1 4 3 -3 5 -1 -4\nright_child=-2 2 6 -5 -6 -7 -8\nleaf_value=-0.0045282999904762769 0.041764206913414995 0.061053100811968401 -0.031643276381340929 0.0040693728935390135 0.031099619250297347 -0.03236991049964047 -0.001387219191973937\nleaf_weight=73.187184326350689 6.7456941008567801 4.8544201701879492 22.398266427218914 296.48540531843901 7.161501705646514 29.368827030062675 15.759623646736143\nleaf_count=406 32 20 100 1394 30 154 72\ninternal_value=-1.17571e-05 -0.000639091 0.00227474 0.00498735 -0.00965534 -0.0125013 -0.0191472\ninternal_weight=455.961 449.215 339.498 301.34 109.718 102.556 38.1579\ninternal_count=2208 2176 1586 1414 590 560 172\nis_linear=0\nshrinkage=0.05\n\n\nTree=53\nnum_leaves=10\nnum_cat=0\nsplit_feature=6 5 5 8 8 12 3 7 11\nsplit_gain=4.57007 5.30376 4.91219 5.16804 4.64925 3.25769 3.19968 3.08914 1.89411\nthreshold=-0.0037580001381142809 0.0038325019452774621 0.0040364500547494615 0.0047574675592840614 0.0034556528703273445 0.023556522987495335 -0.00087750276693688764 0.0026668558166537131 -0.032615381860611241\ndecision_type=2 2 2 2 2 2 2 2 2\nleft_child=4 -2 -3 -4 6 7 8 -6 -1\nright_child=1 2 3 -5 5 -7 -8 -9 -10\nleaf_value=-0.024505477519318569 -0.048145095030316429 0.044084528189347175 0.00080931552328839668 0.026900524286424161 -0.016503287141525193 0.013243679165043619 0.04008496333501136 -0.052024456427027611 0.015490075630768405\nleaf_weight=5.667531594634057 5.1210540235042563 7.1656284928321829 338.0131463855505 20.108245067298412 51.555702745914459 8.0290665626525861 6.4744214117526999 6.945271208882331 6.19687543809414\nleaf_count=30 26 35 1640 93 255 37 31 31 30\ninternal_value=-1.18068e-05 0.00238607 0.00309448 0.00227432 -0.0104773 -0.0166215 0.0118127 -0.0207204 -0.00361548\ninternal_weight=455.277 370.408 365.287 358.121 84.8689 66.53 18.3388 58.501 11.8644\ninternal_count=2208 1794 1768 1733 414 323 91 286 60\nis_linear=0\nshrinkage=0.05\n\n\nTree=54\nnum_leaves=13\nnum_cat=0\nsplit_feature=3 10 11 12 12 6 12 4 20 11 2 10\nsplit_gain=4.48329 4.99112 4.3459 4.29605 6.09914 5.30024 3.52842 7.94756 4.42331 2.91181 2.84008 0.673307\nthreshold=-0.0026618744530339891 0.96361387932742282 -0.01975691475847496 0.00099202172152867995 0.0043431531493953743 -0.00075335774652390819 0.058199058064875582 0.75084819239745626 1.0000000180025095e-35 -0.0087724427419762479 -0.0014505206399892388 -0.078717185451965918\ndecision_type=2 2 2 2 2 2 2 2 2 2 2 2\nleft_child=3 6 -3 10 5 -5 8 -8 -2 -4 11 -1\nright_child=1 2 9 4 -6 -7 7 -9 -10 -11 -12 -13\nleaf_value=-0.037715375552418023 0.0040368410791991006 -0.0062895016092669237 0.065985090067807547 -0.011010164778183958 -0.039798344505732254 0.049422512956583987 0.060916981333984259 -0.011920810365254773 -0.0068252931396143596 0.019576098714959651 -0.0072641967311720158 -0.062992924491550542\nleaf_weight=4.9386403560638437 215.12366981804371 7.0696504265069988 6.5619415640831003 7.9532582461833963 7.1467413678765288 6.6718491688370714 7.3972727283835393 7.5853898972272873 166.08573281764984 6.9697859287261936 5.6373375430703154 5.6463055387139329\nleaf_count=31 1020 32 29 50 44 38 37 42 778 36 32 39\ninternal_value=-1.13186e-05 0.00148754 0.0254821 -0.0164538 -0.00194084 0.0165587 0.000239863 0.0240408 -0.000695586 0.0420812 -0.0359315 -0.0511991\ninternal_weight=454.788 416.793 20.6014 37.9941 21.7718 14.6251 396.192 14.9827 381.209 13.5317 16.2223 10.5849\ninternal_count=2208 1974 97 234 132 88 1877 79 1798 65 102 70\nis_linear=0\nshrinkage=0.05\n\n\nTree=55\nnum_leaves=12\nnum_cat=0\nsplit_feature=12 12 5 10 3 6 8 6 8 10 1\nsplit_gain=4.25282 7.18975 5.60526 5.44776 5.44064 9.84563 5.26283 8.81878 4.56532 4.03173 3.77743\nthreshold=0.015234540915938568 0.011909860535019081 0.0042629925234433834 0.96361387932742282 0.00047825366858952347 -0.00021193043635947537 0.003931134019212087 0.00075570515987566378 0.0047852963206172191 0.19483252814119903 0.0036153251828940918\ndecision_type=2 2 2 2 2 2 2 2 2 2 2\nleft_child=1 4 -2 8 9 -6 10 -8 -4 -1 -3\nright_child=2 6 3 -5 5 -7 7 -9 -10 -11 -12\nleaf_value=0.00016897077126924652 0.039243560978179437 -0.075890672230608469 -0.00069818286065138967 0.043449460959229108 -0.0053193972279315695 0.051950021609136143 -0.047317413879646296 0.031142846969589712 0.033744732606211865 -0.015121005001375191 -0.023255770504371762\nleaf_weight=160.71082531660795 11.880824610590933 6.9635036289691943 145.21315985172987 8.1790240406990034 18.063473835587505 12.838939301669596 6.9256846159696561 7.4165911674499512 10.303428955376146 58.920588694512844 6.6772851943969727\nleaf_count=783 58 32 707 41 86 63 30 33 52 292 31\ninternal_value=-1.19967e-05 -0.00385387 0.00608237 0.00367557 -0.00116905 0.0184742 -0.0278912 -0.00674452 0.00158376 -0.00393288 -0.0501254\ninternal_weight=454.093 278.517 175.576 163.696 250.534 30.9024 27.9831 14.3423 155.517 219.631 13.6408\ninternal_count=2208 1350 858 800 1224 149 126 63 759 1075 63\nis_linear=0\nshrinkage=0.05\n\n\nTree=56\nnum_leaves=10\nnum_cat=0\nsplit_feature=11 5 2 5 5 12 2 8 8\nsplit_gain=4.06196 5.74775 5.77324 5.15439 5.10254 5.01612 4.49363 5.69787 5.55415\nthreshold=-0.031324537811804935 0.0057453461678276044 -0.011025234832406304 0.0053335814572453245 0.0038325019452774621 0.0047885802730783808 -0.0078120409886123779 0.0033982999877523452 0.0039259211953448113\ndecision_type=2 2 2 2 2 2 2 2 2\nleft_child=1 2 3 -1 -2 -4 8 -8 -6\nright_child=4 -3 5 -5 6 -7 7 -9 -10\nleaf_value=0.020830736495573442 -0.046589506259062802 0.038195024902085678 -0.015874917591378865 -0.027734684337572254 0.0025124734527435205 -0.057479974655812553 0.014349126928210229 -0.0014667299870402971 0.062687846885041573\nleaf_weight=18.169731155037883 5.2619605213403693 5.833594247698783 46.368626989424229 7.8125120177865019 8.6068852543830854 8.5861191600561124 71.901228919625282 273.79382319003344 6.91576163470745\nleaf_count=83 27 26 265 38 40 47 344 1306 32\ninternal_value=-1.07172e-05 -0.00973835 -0.0131932 0.00622777 0.00229247 -0.0223753 0.00300455 0.00182282 0.0293222\ninternal_weight=453.25 86.7706 80.937 25.9822 366.48 54.9547 361.218 345.695 15.5226\ninternal_count=2208 459 433 121 1749 312 1722 1650 72\nis_linear=0\nshrinkage=0.05\n\n\nTree=57\nnum_leaves=12\nnum_cat=0\nsplit_feature=3 6 5 5 8 7 10 11 1 11 3\nsplit_gain=4.01486 3.87483 4.07836 4.66364 4.01489 3.57132 3.508 3.93973 5.57227 2.50656 2.36546\nthreshold=0.0026106353181044521 -0.0037580001381142809 0.0038325019452774621 0.0040364500547494615 0.0034556528703273445 0.0055023598750828526 0.51912561206582708 -0.0013696481019904725 0.01942716026313274 -0.0023855122046368966 -0.0017148733637501821\ndecision_type=2 2 2 2 2 2 2 2 2 2 2\nleft_child=1 4 -3 -4 10 -6 7 9 -9 -2 -1\nright_child=6 2 3 -5 5 -7 -8 8 -10 -11 -12\nleaf_value=-0.0080598226431666097 0.011673910706925391 -0.043821270906801414 0.041776087049911731 0.00062847287737919787 -0.01245038120230188 -0.046713170629866935 0.047445621651516875 -0.044355867901090723 0.010673158046509014 0.04972182185818174 0.028697341174291041\nleaf_weight=8.988894462585451 12.636496044695379 5.0339089184999457 7.0417306870222083 311.6350304633379 55.119209006428719 8.8228088021278364 6.6471651494503012 6.6804909557104137 14.77406185120344 6.5841135904192916 8.5308889001607877\nleaf_count=47 73 26 35 1468 273 39 44 36 88 39 40\ninternal_value=-1.09538e-05 -0.00162053 0.000832342 0.0015377 -0.0113677 -0.017178 0.0137702 0.00826692 -0.00646171 0.0247074 0.0098383\ninternal_weight=452.495 405.172 323.711 318.677 81.4618 63.942 47.3223 40.6752 21.4546 19.2206 17.5198\ninternal_count=2208 1928 1529 1503 399 312 280 236 124 112 87\nis_linear=0\nshrinkage=0.05\n\n\nTree=58\nnum_leaves=9\nnum_cat=0\nsplit_feature=8 11 7 6 12 2 5 5\nsplit_gain=4.0184 3.64337 4.52016 8.56355 7.22975 3.96017 7.59085 4.53264\nthreshold=0.0052023451567014423 -0.031324537811804935 -0.010560940458457622 -0.0037125291800671474 0.00066309691262356207 -0.011025234832406304 0.0053650670736157561 0.0048954066015301041\ndecision_type=2 2 2 2 2 2 2 2\nleft_child=1 5 3 -3 -4 7 -7 -1\nright_child=-2 2 4 -5 -6 6 -8 -9\nleaf_value=0.035697496613335176 0.038746396243089704 -0.013948559314295325 -0.057266017777246304 0.030443311500592263 0.00042282053752779172 -0.026434017401176565 0.017971910295395282 -0.0081022018109930174\nleaf_weight=8.689783379435541 6.5909032747149459 16.248871654272079 5.5294168144464484 32.78150786459446 305.12718007713556 46.242162778973579 12.153139293193815 18.443340353667736\nleaf_count=38 32 79 27 157 1457 267 63 88\ninternal_value=-9.09626e-06 -0.000582827 0.00162279 0.0157317 -0.000603991 -0.00985847 -0.0171923 0.0059253\ninternal_weight=451.806 445.215 359.687 49.0304 310.657 85.5284 58.3953 27.1331\ninternal_count=2208 2176 1720 236 1484 456 330 126\nis_linear=0\nshrinkage=0.05\n\n\nTree=59\nnum_leaves=8\nnum_cat=0\nsplit_feature=5 5 3 4 8 10 3\nsplit_gain=3.81524 5.10824 4.35834 4.96386 4.40173 2.53311 2.07702\nthreshold=0.0038325019452774621 0.0043169615054867794 -0.0026618744530339891 -0.7342322280228385 0.0042212939919626232 0.33844124437753315 0.0012975221433157594\ndecision_type=2 2 2 2 2 2 2\nleft_child=-1 5 4 -4 -3 6 -2\nright_child=1 2 3 -5 -6 -7 -8\nleaf_value=-0.042714055455374551 0.0039349597738145784 -0.029791473791699871 0.013244552614326994 -0.0021685649885520779 0.0075227589629174065 0.041428190052694623 0.035580535479603673\nleaf_weight=5.1704173088073722 23.534089311957363 24.476940020918846 62.900028958916664 308.14268538355827 11.672285377979277 8.7744243219494802 6.6502675488591185\nleaf_count=27 106 171 296 1467 58 44 39\ninternal_value=-1.03169e-05 0.000484575 -0.00117031 0.000444303 -0.017743 0.0177812 0.0109072\ninternal_weight=451.321 446.151 407.192 371.043 36.1492 38.9588 30.1844\ninternal_count=2208 2181 1992 1763 229 189 145\nis_linear=0\nshrinkage=0.05\n\n\nTree=60\nnum_leaves=10\nnum_cat=0\nsplit_feature=3 4 3 8 9 7 10 0 4\nsplit_gain=3.67504 3.80492 4.29813 3.62415 3.42359 6.07411 4.03799 3.31095 0.987372\nthreshold=0.0026106353181044521 1.0748138426126064 0.0024288379211207457 0.0050325468661893222 0.97393472402181536 0.022688332641789492 0.011944998703082523 0.10937204253744605 0.7929080710211488\ndecision_type=2 2 2 2 2 2 2 2 2\nleft_child=1 2 3 -1 7 -6 -7 -2 -9\nright_child=4 -3 -4 -5 5 6 -8 8 -10\nleaf_value=-0.0023151988358631362 0.0036886092031920741 0.030418834589607698 -0.042758551227759754 0.031622341720032303 -0.037769305917302896 -0.0016083970284184864 0.043961603577541045 0.033831717283559319 0.063346197196785678\nleaf_weight=380.38042472302914 7.5548826009035137 9.0983569175004941 6.4526242911815634 8.032686382532118 7.1328660398721722 12.751940079033377 7.8561336025595656 6.7656295821070653 4.8758517056703568\nleaf_count=1817 40 44 32 35 40 75 51 43 31\ninternal_value=-1.04374e-05 -0.00154912 -0.00228571 -0.00161334 0.0132321 0.00199902 0.0157636 0.0294653 0.0461934\ninternal_weight=450.901 403.964 394.866 388.413 46.9373 27.7409 20.6081 19.1964 11.6415\ninternal_count=2208 1928 1884 1852 280 166 126 114 74\nis_linear=0\nshrinkage=0.05\n\n\nTree=61\nnum_leaves=13\nnum_cat=0\nsplit_feature=10 10 3 6 10 7 11 7 7 0 2 5\nsplit_gain=3.47264 5.45164 7.83655 5.44015 5.33958 4.30766 3.98789 4.86375 3.69966 3.81077 3.27802 3.26617\nthreshold=0.76998261832711001 0.21080901528166388 -0.0010243096759058885 0.0048307217484571128 -0.24761869793699701 -0.005652022152559665 -0.01975691475847496 -0.018643762071384625 0.00077255972849599186 0.21964047400783446 -0.0064864801687622422 0.0046977975587474486\ndecision_type=2 2 2 2 2 2 2 2 2 2 2 2\nleft_child=1 3 10 11 -5 -4 7 -2 -8 -10 -3 -1\nright_child=6 2 5 4 -6 -7 8 -9 9 -11 -12 -13\nleaf_value=0.0061935584831803109 0.025877609972205458 -0.061610702220127593 0.03065034382148818 -0.00053897472912253395 0.036464604898626136 -0.0080099228154781009 0.054495796323369317 -0.035636695734938273 -0.012518087574714638 0.041671314104692797 -0.023526549470591806 -0.0047392548819236314\nleaf_weight=107.37530528008938 6.0677300319075584 8.0618675351142901 8.5354946330189687 18.390870466828346 20.746924243867397 46.234066225588322 8.3483726084232348 6.830839738249777 7.1974988728761655 5.9069049432873726 18.887686550617218 187.79364265501499\nleaf_count=510 32 45 39 89 103 225 37 31 35 33 104 925\ninternal_value=-7.84857e-06 -0.00126945 -0.0128461 0.00156039 0.0190766 -0.00198496 0.0152713 -0.00669921 0.0284812 0.0119082 -0.0349193 -0.000762163\ninternal_weight=450.377 416.026 81.7191 334.307 39.1378 54.7696 34.3513 12.8986 21.4528 13.1044 26.9496 295.169\ninternal_count=2208 2040 413 1627 192 264 168 63 105 68 149 1435\nis_linear=0\nshrinkage=0.05\n\n\nTree=62\nnum_leaves=7\nnum_cat=0\nsplit_feature=8 12 4 5 5 10\nsplit_gain=3.37607 3.45843 7.44685 4.39297 5.79506 4.99082\nthreshold=0.0052023451567014423 0.058199058064875582 0.75084819239745626 0.0047192796968196183 0.0049391776034567129 -0.61089209668341227\ndecision_type=2 2 2 2 2 2\nleft_child=1 3 -3 5 -5 -1\nright_child=-2 2 -4 4 -6 -7\nleaf_value=-0.030562367184614633 0.035871750759921904 0.059483008458555434 -0.011249486039633967 -0.016009179088103613 -0.00025333507392042164 0.0074500008354751292\nleaf_weight=9.1648845523595792 6.4618761241435996 7.244813069701193 7.6507707238197327 85.339449234306812 184.59912755340338 149.34689731895924\nleaf_count=42 32 37 43 413 921 720\ninternal_value=-8.38395e-06 -0.000531346 0.0231529 -0.00135476 -0.00523445 0.00525219\ninternal_weight=449.808 443.346 14.8956 428.45 269.939 158.512\ninternal_count=2208 2176 80 2096 1334 762\nis_linear=0\nshrinkage=0.05\n\n\nTree=63\nnum_leaves=8\nnum_cat=0\nsplit_feature=5 5 4 12 7 6 7\nsplit_gain=3.53543 4.38092 3.77386 3.91047 2.49957 2.96619 2.49214\nthreshold=0.0038325019452774621 0.0043169615054867794 1.0748138426126064 0.041308999324773839 0.0094817117337403518 -0.00033599545773543843 0.017341402666611442\ndecision_type=2 2 2 2 2 2 2\nleft_child=-1 4 3 -3 5 -2 -4\nright_child=1 2 6 -5 -6 -7 -8\nleaf_value=-0.041228428288250074 0.027766286922606166 -0.0038564893422298936 0.047165323844975737 0.01219862493592744 0.041002830221628983 -0.0037048762695654686 0.0077692032024365351\nleaf_weight=5.1422230601310721 13.219106309115888 345.32644720375538 6.1728183925151852 42.605730645358562 8.2241413667798025 17.266714088618755 11.4795860722661\nleaf_count=27 63 1669 31 224 45 81 68\ninternal_value=-7.57495e-06 0.000469511 -0.00106436 -0.00209319 0.0165406 0.00994149 0.0215455\ninternal_weight=449.437 444.295 405.585 387.932 38.71 30.4858 17.6524\ninternal_count=2208 2181 1992 1893 189 144 99\nis_linear=0\nshrinkage=0.05\n\n\nTree=64\nnum_leaves=12\nnum_cat=0\nsplit_feature=3 0 8 6 0 7 9 7 10 4 6\nsplit_gain=3.18695 3.39156 5.39654 3.83051 4.21553 3.83714 3.28591 5.46695 3.81194 3.11233 1.62014\nthreshold=0.0026106353181044521 0.5137742541965763 0.0035785144708817456 -0.0037580001381142809 -0.56317749897551217 0.0059677827374395873 0.97393472402181536 0.022688332641789492 0.24314484775263903 0.60394780565980499 -0.0011233046619960605\ndecision_type=2 2 2 2 2 2 2 2 2 2 2\nleft_child=1 3 -3 5 -5 -1 9 -8 -9 -2 -11\nright_child=6 2 -4 4 -6 -7 7 8 -10 10 -12\nleaf_value=-0.0061830743429143039 -0.0032403258669078529 -0.057058858439880913 -8.6633085799788236e-05 -0.03007071605416144 0.0031599513877104768 -0.040019002691734008 -0.035989162076787193 0.0021786196449338955 0.052266722707046104 0.021787610933037889 0.056891595494078212\nleaf_weight=70.379092954099178 5.4757053479552296 6.9775675982236889 10.280686780810354 9.8622375652194005 295.41560042649508 9.5113734453916532 7.2139936238527325 15.198871925473215 5.0641978457570067 5.8467867746949205 7.5069834142923328\nleaf_count=354 30 31 47 51 1403 42 40 91 35 36 48\ninternal_value=-6.63743e-06 -0.001436 -0.0231207 -0.00046437 0.00208641 -0.0102114 0.0124152 0.00138938 0.0146968 0.0285047 0.0415217\ninternal_weight=448.733 402.427 17.2583 385.168 305.278 79.8905 46.3065 27.4771 20.2631 18.8295 13.3538\ninternal_count=2208 1928 78 1850 1454 396 280 166 126 114 84\nis_linear=0\nshrinkage=0.05\n\n\nTree=65\nnum_leaves=8\nnum_cat=0\nsplit_feature=8 8 3 12 8 3 8\nsplit_gain=3.06936 3.05556 5.51009 7.47219 6.05849 4.39794 2.69668\nthreshold=0.0052023451567014423 0.0045599232433089013 -0.001503574456669241 0.0047444903665464508 0.0040078900554312109 -0.0017272827271567176 0.0047574675592840614\ndecision_type=2 2 2 2 2 2 2\nleft_child=1 2 3 -1 -4 -3 